~o
<STREAMINFO> 1 16
<VECSIZE> 16<NULLD><MFCC><DIAGC>
~h "fp_logo_0"
<BEGINHMM>
<NUMSTATES> 5
<STATE> 2
<MEAN> 16
 1.242507e+02 1.536295e+01 3.695979e+00 5.613403e+00 1.816960e+00 6.411661e-01 9.865314e-02 -2.171544e-01 1.838383e-01 -1.592955e-01 -9.986689e-02 -1.414114e+00 -3.377929e-01 -2.761209e-01 -7.215719e-01 -1.478628e-01
<VARIANCE> 16
 4.402529e+02 2.929394e+02 1.334986e+01 3.915860e+01 2.610344e+00 3.720235e-01 5.040561e+01 2.739204e+01 4.159696e+00 5.066784e+00 5.622981e-01 1.367145e+02 9.056704e+01 1.038885e+01 1.148534e+01 1.405909e+00
<GCONST> 7.165242e+01
<STATE> 3
<MEAN> 16
 1.078926e+02 5.896448e+00 1.829198e+00 1.849299e+00 7.288479e-01 2.299520e-01 2.606426e-01 -8.382945e-01 -2.628206e-01 -3.034865e-01 -4.743026e-02 2.687994e+00 -9.773984e-01 3.012372e-01 6.196140e-01 1.839373e-01
<VARIANCE> 16
 2.398101e+02 9.786067e+01 3.179293e+00 1.237638e+01 3.993750e-01 1.750655e-02 9.639762e+00 7.564008e+00 1.474294e+00 4.118001e-01 1.638231e-02 4.124363e+01 3.259235e+01 4.287821e+00 6.771037e+00 3.762822e-01
<GCONST> 4.745213e+01
<STATE> 4
<MEAN> 16
 1.008906e+02 2.722534e+00 2.159557e+00 9.006128e-01 8.434486e-01 2.455434e-01 -1.879938e-01 1.555724e-02 5.523972e-03 3.760169e-02 1.092696e-02 -2.350928e-01 3.520675e-02 2.607751e-02 3.134533e-02 1.340461e-02
<VARIANCE> 16
 4.268761e+02 6.723284e+00 3.780777e+00 1.481308e+00 5.172491e-01 2.313474e-02 9.005849e+00 5.338838e+00 3.388896e-01 5.379004e-01 2.555761e-02 2.233849e+01 1.395349e+01 9.857597e-01 1.243658e+00 6.234086e-02
<GCONST> 3.633982e+01
<TRANSP> 5
 0.000000e+00 1.000000e+00 0.000000e+00 0.000000e+00 0.000000e+00
 0.000000e+00 4.673230e-01 5.326771e-01 0.000000e+00 0.000000e+00
 0.000000e+00 0.000000e+00 3.951112e-03 9.960489e-01 0.000000e+00
 0.000000e+00 0.000000e+00 0.000000e+00 9.154426e-01 8.455737e-02
 0.000000e+00 0.000000e+00 0.000000e+00 0.000000e+00 0.000000e+00
<ENDHMM>
~h "fp_logo_1"
<BEGINHMM>
<NUMSTATES> 5
<STATE> 2
<MEAN> 16
 1.101994e+02 4.296382e+00 2.919572e+00 2.549716e+00 2.248074e+00 2.388311e+00 3.737653e-01 5.168461e-01 2.928119e-01 4.616201e-01 7.272041e-01 1.293983e+00 9.661065e-01 5.237563e-02 3.360109e-01 4.636249e-01
<VARIANCE> 16
 2.020437e+02 3.810051e+01 5.598031e+00 5.022732e+00 1.493396e+00 2.644096e+00 1.031268e+01 1.212088e+01 2.434150e+00 1.736495e+00 2.435064e+00 3.734224e+01 3.667472e+01 6.306727e+00 3.058606e+00 4.161519e+00
<GCONST> 6.183193e+01
<STATE> 3
<MEAN> 16
 2.774754e+02 5.156844e+01 7.189748e+01 1.401927e+01 1.858664e+01 5.234599e+00 1.959002e+00 8.489422e+00 1.187145e+00 1.754005e+00 -9.939343e-03 -3.071379e+00 5.153285e-01 6.670365e-02 -1.346713e+00 -5.278648e-01
<VARIANCE> 16
 3.463984e+04 4.247741e+03 7.095586e+03 2.410423e+02 2.575250e+02 1.857418e+01 5.026977e+03 8.349102e+03 2.558782e+02 3.878777e+02 1.732806e+01 1.114769e+04 1.856759e+04 5.217695e+02 1.033924e+03 4.064676e+01
<GCONST> 1.389997e+02
<STATE> 4
<MEAN> 16
 1.385723e+02 5.829516e+00 2.005985e+01 3.008122e+00 5.238955e+00 1.686364e+00 -3.270761e+00 -3.617696e+00 -2.433891e+00 -1.070426e+00 -1.246847e-01 4.508077e+00 -6.407615e+00 -2.562469e+00 1.638180e+00 2.214738e-01
<VARIANCE> 16
 7.876103e+03 2.582703e+01 2.848836e+03 2.081971e+01 1.161890e+02 3.852514e+00 9.543674e+01 1.120291e+02 1.591922e+01 3.124168e+01 2.758630e+00 1.373591e+03 2.292597e+03 1.563525e+02 2.355204e+02 8.720198e+00
<GCONST> 1.028670e+02
<TRANSP> 5
 0.000000e+00 1.000000e+00 0.000000e+00 0.000000e+00 0.000000e+00
 0.000000e+00 5.044343e-01 4.955657e-01 0.000000e+00 0.000000e+00
 0.000000e+00 0.000000e+00 6.064373e-01 3.935628e-01 0.000000e+00
 0.000000e+00 0.000000e+00 0.000000e+00 5.142874e-02 9.485713e-01
 0.000000e+00 0.000000e+00 0.000000e+00 0.000000e+00 0.000000e+00
<ENDHMM>
~h "fp_logo_2"
<BEGINHMM>
<NUMSTATES> 5
<STATE> 2
<MEAN> 16
 1.306472e+02 6.523313e+00 1.570821e+01 3.126820e+00 4.423437e+00 3.166705e+00 7.434950e-01 5.364016e-01 2.217802e-02 -2.590758e-01 3.503030e-01 2.426636e+00 2.927206e+00 1.506662e+00 6.544805e-02 2.358180e-01
<VARIANCE> 16
 7.760415e+03 6.522536e+01 2.491490e+03 7.465965e+00 4.795432e+01 8.278655e+00 6.681845e+01 6.572332e+01 6.140882e+00 1.082349e+01 4.639779e+00 1.621664e+02 1.499133e+02 1.665257e+01 4.380820e+01 5.836183e+00
<GCONST> 9.092953e+01
<STATE> 3
<MEAN> 16
 3.002307e+02 7.575321e+01 7.128644e+01 2.293094e+01 1.783318e+01 7.307858e+00 -4.516461e-01 -3.791392e+00 5.769873e-02 -5.598048e-01 -1.345185e-01 -2.401795e+00 -5.724611e+00 -3.976816e-01 -6.839861e-01 -3.707897e-01
<VARIANCE> 16
 2.904302e+04 5.820856e+03 6.395385e+03 5.382907e+02 2.265302e+02 3.602013e+01 8.807499e+03 9.316123e+03 4.499771e+02 3.142574e+02 4.134879e+01 2.638331e+04 2.481665e+04 8.773480e+02 8.667511e+02 1.104398e+02
<GCONST> 1.447607e+02
<STATE> 4
<MEAN> 16
 1.206040e+02 6.461798e+00 4.508356e+00 4.259940e+00 2.143742e+00 1.470829e+00 5.856991e-01 4.068027e-01 5.697685e-01 -2.651556e-01 -1.708269e-01 8.393021e+00 2.126100e+01 1.920138e+00 3.222651e+00 1.111903e+00
<VARIANCE> 16
 3.842052e+02 6.378206e+01 3.827999e+01 3.364592e+01 2.519325e+00 2.480066e+00 3.713739e+01 3.578743e+01 9.776402e+00 1.919284e+00 2.025621e+00 1.016415e+03 4.933778e+03 4.232195e+01 9.841582e+01 9.978493e+00
<GCONST> 8.539864e+01
<TRANSP> 5
 0.000000e+00 1.000000e+00 0.000000e+00 0.000000e+00 0.000000e+00
 0.000000e+00 3.653558e-01 6.346442e-01 0.000000e+00 0.000000e+00
 0.000000e+00 0.000000e+00 7.785102e-01 2.214898e-01 0.000000e+00
 0.000000e+00 0.000000e+00 0.000000e+00 1.915544e-01 8.084457e-01
 0.000000e+00 0.000000e+00 0.000000e+00 0.000000e+00 0.000000e+00
<ENDHMM>
~h "fp_logo_3"
<BEGINHMM>
<NUMSTATES> 5
<STATE> 2
<MEAN> 16
 1.251048e+02 5.375153e+00 3.273205e+00 2.898582e+00 2.011557e+00 1.180460e+00 -4.541845e-01 -1.772529e+00 -1.062920e+00 -1.588454e-01 -2.229266e-01 -8.604279e-01 -2.917500e+00 -1.634954e+00 -2.115717e-01 -2.346950e-01
<VARIANCE> 16
 4.940033e+02 2.880481e+01 4.710571e+00 1.467083e+01 1.604118e+00 7.969884e-01 2.516840e+01 4.413602e+01 3.451075e+01 3.530125e+00 2.409041e+00 1.236403e+02 1.415247e+02 8.543363e+01 4.040565e+00 5.960495e+00
<GCONST> 7.354428e+01
<STATE> 3
<MEAN> 16
 1.243112e+02 4.145200e+00 2.776289e+00 2.197150e+00 1.261824e+00 3.249987e-01 -1.228155e+00 -4.971342e-01 -7.021799e-01 -7.495079e-01 -8.551100e-01 -7.742214e-01 1.273081e+00 3.587167e-01 -5.907626e-01 -6.312628e-01
<VARIANCE> 16
 5.789053e+02 1.353405e+01 5.550055e+00 6.117061e+00 4.497905e-01 9.553512e-03 1.008966e+01 1.361523e+01 3.553246e+00 1.690346e+00 7.815132e-01 3.277885e+01 6.053481e+01 4.495831e+01 6.584763e+00 3.619908e+00
<GCONST> 5.748637e+01
<STATE> 4
<MEAN> 16
 1.277513e+02 6.300227e+00 3.283875e+00 3.082655e+00 1.445737e+00 4.158920e-01 6.154731e-02 9.458303e-02 6.302437e-02 2.743978e-02 2.036854e-02 7.350078e-02 -2.217352e-03 9.303257e-02 8.360818e-02 9.458010e-02
<VARIANCE> 16
 5.573080e+02 4.829103e+01 7.052356e+00 1.386601e+01 8.514084e-01 1.090690e-01 1.508535e+01 1.248922e+01 1.325345e+00 1.190297e+00 1.412510e-01 4.482653e+01 3.650131e+01 4.053931e+00 3.400178e+00 4.829870e-01
<GCONST> 5.484570e+01
<TRANSP> 5
 0.000000e+00 1.000000e+00 0.000000e+00 0.000000e+00 0.000000e+00
 0.000000e+00 0.000000e+00 1.000000e+00 0.000000e+00 0.000000e+00
 0.000000e+00 0.000000e+00 5.522550e-04 9.994478e-01 0.000000e+00
 0.000000e+00 0.000000e+00 0.000000e+00 8.842189e-01 1.157812e-01
 0.000000e+00 0.000000e+00 0.000000e+00 0.000000e+00 0.000000e+00
<ENDHMM>
~h "fp_logo_4"
<BEGINHMM>
<NUMSTATES> 5
<STATE> 2
<MEAN> 16
 1.745204e+02 4.386391e+00 4.985272e+00 2.312351e+00 1.669811e+00 7.195858e-01 4.517159e-01 2.263427e-01 1.229355e-01 3.796001e-02 1.320481e-01 4.188544e-01 -4.691855e-02 1.696238e-02 -3.233209e-02 9.349526e-02
<VARIANCE> 16
 3.799784e+02 1.629368e+01 1.268105e+01 3.003118e+00 6.175585e-01 3.787207e-01 1.745724e+01 2.801536e+01 1.129377e+00 9.816328e-01 2.577769e-01 5.111946e+01 8.715024e+01 3.201750e+00 2.313614e+00 4.974783e-01
<GCONST> 5.496982e+01
<STATE> 3
<MEAN> 16
 1.735971e+02 1.970329e+01 6.152158e+00 8.099807e+00 2.397382e+00 8.690299e-01 3.396225e-02 6.321337e-01 -1.850848e-01 3.711976e-01 -4.124211e-02 -5.263875e-01 5.907767e-01 -4.993139e-02 2.852080e-01 -1.418754e-01
<VARIANCE> 16
 1.280479e+03 3.079769e+02 2.887573e+01 2.575512e+01 1.763092e+00 3.156894e-01 7.567477e+01 6.130946e+01 5.503996e+00 2.551044e+00 6.330327e-01 1.596792e+02 1.944935e+02 1.175550e+01 6.099339e+00 1.465873e+00
<GCONST> 7.394241e+01
<STATE> 4
<MEAN> 16
 2.216799e+02 3.938562e+00 3.746333e+00 2.052867e+00 2.283098e+00 7.701012e-01 -2.265202e-01 -3.770502e-01 -1.592714e-02 -7.348249e-02 3.938356e-02 1.513633e-01 -3.148032e-01 2.317736e-02 -1.570273e-01 5.542729e-02
<VARIANCE> 16
 3.158880e+02 9.856380e+00 1.111545e+01 1.289005e+00 1.138482e+00 5.076870e-01 2.191781e+01 1.887250e+01 1.388626e+00 2.146545e+00 5.660236e-01 6.989276e+01 6.004971e+01 3.979650e+00 6.559793e+00 1.404637e+00
<GCONST> 5.805568e+01
<TRANSP> 5
 0.000000e+00 1.000000e+00 0.000000e+00 0.000000e+00 0.000000e+00
 0.000000e+00 6.905810e-01 3.094190e-01 0.000000e+00 0.000000e+00
 0.000000e+00 0.000000e+00 6.839039e-01 3.160961e-01 0.000000e+00
 0.000000e+00 0.000000e+00 0.000000e+00 8.320001e-01 1.679998e-01
 0.000000e+00 0.000000e+00 0.000000e+00 0.000000e+00 0.000000e+00
<ENDHMM>
~h "fp_logo_5"
<BEGINHMM>
<NUMSTATES> 5
<STATE> 2
<MEAN> 16
 2.396663e+02 4.708787e+00 3.758447e+00 2.029200e+00 2.385561e+00 9.624745e-01 -1.250411e-01 2.917693e-01 -2.467967e-01 1.985195e-01 5.440143e-02 -2.565257e-01 8.016053e-01 -3.611137e-01 2.546015e-01 -8.364047e-02
<VARIANCE> 16
 6.738802e+02 1.672242e+01 1.239600e+01 1.438698e+00 1.395357e+00 7.769688e-01 1.136897e+01 1.814865e+01 1.114350e+00 1.281196e+00 1.173713e+00 5.329676e+01 3.706231e+01 3.197069e+00 4.825208e+00 1.765803e+00
<GCONST> 5.843664e+01
<STATE> 3
<MEAN> 16
 2.508187e+02 7.430430e+00 4.925814e+00 3.686320e+00 3.162786e+00 2.496697e+00 4.954098e-01 -4.148822e-01 1.508079e-01 -3.464867e-01 -2.386504e-01 1.465683e+00 -8.110281e-01 2.250620e-01 -5.355281e-01 -1.302215e-01
<VARIANCE> 16
 7.870794e+02 6.855403e+01 1.139718e+01 7.325690e+00 4.854354e+00 1.746538e+01 9.341438e+01 2.317009e+01 1.071439e+01 4.616594e+00 2.279595e+01 2.020038e+02 7.830257e+01 2.697382e+01 8.218469e+00 5.816886e+01
<GCONST> 8.300803e+01
<STATE> 4
<MEAN> 16
 2.679445e+02 2.958481e+00 3.859643e+00 1.745770e+00 1.862012e+00 5.547597e-01 -2.578745e-01 3.015266e-01 -4.717485e-02 -6.184781e-03 3.301297e-03 -2.064726e-01 4.937953e-01 1.566005e-02 8.471541e-02 1.968501e-02
<VARIANCE> 16
 3.800767e+02 5.450763e+00 1.022251e+01 7.414809e-01 9.112265e-01 1.483608e-01 9.151440e+00 1.956919e+01 1.110347e+00 1.429470e+00 1.113824e-01 2.976471e+01 5.380173e+01 3.288437e+00 3.922035e+00 2.887610e-01
<GCONST> 4.921513e+01
<TRANSP> 5
 0.000000e+00 1.000000e+00 0.000000e+00 0.000000e+00 0.000000e+00
 0.000000e+00 4.094881e-01 5.905119e-01 0.000000e+00 0.000000e+00
 0.000000e+00 0.000000e+00 4.045753e-01 5.954247e-01 0.000000e+00
 0.000000e+00 0.000000e+00 0.000000e+00 9.012343e-01 9.876570e-02
 0.000000e+00 0.000000e+00 0.000000e+00 0.000000e+00 0.000000e+00
<ENDHMM>
~h "bg_white_0"
<BEGINHMM>
<NUMSTATES> 5
<STATE> 2
<MEAN> 16
 6.391309e+02 4.823970e+00 3.347189e+01 2.017249e+00 6.606695e+00 8.694463e-01 -5.887882e-01 -3.896063e+00 -9.539811e-03 -8.042076e-01 4.317944e-02 -2.934113e-01 -2.604206e+00 -1.130766e-01 2.902187e-01 -1.471389e-02
<VARIANCE> 16
 2.592733e+04 1.427119e+02 3.496655e+03 1.079374e+01 9.590561e+01 1.339043e+00 3.564953e+02 9.574083e+03 2.082117e+01 2.689734e+02 2.589651e+00 6.742369e+02 3.277812e+04 3.779435e+01 9.386624e+02 4.746442e+00
<GCONST> 1.134941e+02
<STATE> 3
<MEAN> 16
 7.279872e+02 1.653036e+01 2.173837e+01 5.859530e+00 8.788542e+00 2.789437e+00 -2.005676e+00 6.318918e+00 -5.186116e-01 1.813872e+00 -4.740408e-02 -1.374459e+00 1.547452e+01 -6.125566e-01 3.121370e+00 -2.272176e-01
<VARIANCE> 16
 9.495319e+03 1.277276e+03 1.299865e+03 7.848496e+01 1.267345e+02 1.707556e+01 5.022788e+02 2.162859e+03 4.928053e+01 1.742222e+02 1.463130e+01 1.610208e+03 6.076622e+03 1.394165e+02 4.318390e+02 3.708974e+01
<GCONST> 1.212843e+02
<STATE> 4
<MEAN> 16
 7.422853e+02 2.056625e+00 3.597625e+00 9.383533e-01 1.109105e+00 4.383382e-01 -3.499687e-01 -5.918125e+00 -1.564173e-01 -1.907432e+00 -8.319257e-02 5.989593e-01 -7.809082e+00 2.438028e-01 -2.222721e+00 8.800066e-02
<VARIANCE> 16
 1.536788e+04 2.648112e+01 1.318983e+02 3.697044e+00 7.800653e+00 5.419139e-01 1.280591e+01 7.425974e+02 1.605501e+00 5.719523e+01 4.245618e-01 4.304590e+01 3.067374e+03 4.498569e+00 2.314597e+02 1.514702e+00
<GCONST> 8.193112e+01
<TRANSP> 5
 0.000000e+00 1.000000e+00 0.000000e+00 0.000000e+00 0.000000e+00
 0.000000e+00 5.617811e-01 4.382189e-01 0.000000e+00 0.000000e+00
 0.000000e+00 0.000000e+00 3.422596e-01 6.577404e-01 0.000000e+00
 0.000000e+00 0.000000e+00 0.000000e+00 6.273307e-01 3.726692e-01
 0.000000e+00 0.000000e+00 0.000000e+00 0.000000e+00 0.000000e+00
<ENDHMM>
~h "fp_screen_0"
<BEGINHMM>
<NUMSTATES> 5
<STATE> 2
<MEAN> 16
 4.366654e+02 1.881045e+01 1.617421e+01 4.166537e+00 4.945210e+00 9.510783e-01 3.959566e+00 -2.549605e+00 8.926193e-01 -1.968892e-01 1.883159e-01 4.189634e+00 -4.086097e+00 1.365985e+00 5.093465e-01 3.967080e-01
<VARIANCE> 16
 2.420129e+04 8.811270e+02 6.019021e+02 5.503471e+01 2.626517e+01 1.737596e+00 1.807599e+02 6.835737e+02 1.059210e+01 3.797319e+01 7.333122e-01 3.128475e+02 1.652579e+03 1.186356e+01 1.007790e+02 8.771724e-01
<GCONST> 9.803267e+01
<STATE> 3
<MEAN> 16
 4.891499e+02 1.860162e+01 8.511545e+00 8.107159e+00 2.392488e+00 1.204592e+00 -3.903176e+00 -9.810672e+00 1.398911e-01 -3.038474e+00 -2.157011e-01 -4.477426e+00 -7.366590e+00 -8.640407e-01 -2.847129e+00 -3.058617e-01
<VARIANCE> 16
 2.979468e+04 8.625282e+02 1.794711e+02 1.906463e+02 9.397514e+00 2.958986e+00 1.686677e+02 7.618978e+02 5.501148e+00 3.282141e+01 1.330398e+00 5.979365e+02 2.309547e+03 2.436808e+01 1.202559e+02 3.901767e+00
<GCONST> 1.009616e+02
<STATE> 4
<MEAN> 16
 3.921510e+02 1.456870e+01 4.370475e+00 3.987823e+00 1.550928e+00 6.809638e-01 -4.430702e-01 -6.473180e-01 -1.279845e-01 -1.383801e-01 -9.425856e-02 2.860116e-01 4.980382e+00 -1.187034e-01 1.612088e+00 2.878968e-02
<VARIANCE> 16
 2.452456e+04 5.498309e+02 2.870321e+01 4.742453e+01 1.565684e+00 4.107071e-01 2.716598e+01 4.424973e+01 2.586632e+00 2.072662e+00 5.960373e-01 8.373681e+01 4.308097e+02 5.733811e+00 1.792894e+01 1.164746e+00
<GCONST> 7.612987e+01
<TRANSP> 5
 0.000000e+00 1.000000e+00 0.000000e+00 0.000000e+00 0.000000e+00
 0.000000e+00 1.628573e-02 9.837142e-01 0.000000e+00 0.000000e+00
 0.000000e+00 0.000000e+00 1.190455e-01 8.809545e-01 0.000000e+00
 0.000000e+00 0.000000e+00 0.000000e+00 4.846756e-01 5.153244e-01
 0.000000e+00 0.000000e+00 0.000000e+00 0.000000e+00 0.000000e+00
<ENDHMM>
~h "fp_screen_1"
<BEGINHMM>
<NUMSTATES> 5
<STATE> 2
<MEAN> 16
 5.548082e+02 4.490148e+01 4.122567e+00 2.883367e+01 1.890619e+00 9.370966e-01 4.018208e-01 -1.381944e-01 -1.019113e-01 4.816850e-02 1.093587e-01 3.301492e-01 1.745455e-01 1.336001e-01 1.291619e-01 1.254926e-01
<VARIANCE> 16
 1.765419e+04 2.685682e+03 2.164355e+01 4.832670e+02 3.208449e+00 1.415624e+00 6.583976e+01 3.310670e+01 8.118603e+00 3.411735e+00 1.829749e+00 9.519146e+01 1.063555e+02 7.548352e+00 7.617258e+00 4.257373e+00
<GCONST> 8.418468e+01
<STATE> 3
<MEAN> 16
 5.134854e+02 3.975825e+01 2.830270e+01 7.605189e+00 5.741457e+00 4.118345e+00 -1.377296e-01 -5.660224e-01 -3.896821e-01 -2.380600e-01 -2.402835e-01 -4.444612e-01 -1.944566e-02 -3.886524e-01 -3.401431e-01 -3.263012e-01
<VARIANCE> 16
 3.753875e+04 2.888035e+03 1.916760e+03 6.205965e+01 4.696412e+01 3.372747e+01 3.544740e+03 3.062524e+03 7.021717e+01 5.508146e+01 3.723419e+01 9.087355e+03 8.481709e+03 1.584387e+02 1.266082e+02 9.689629e+01
<GCONST> 1.276799e+02
<STATE> 4
<MEAN> 16
 4.186416e+02 6.834644e+00 2.382112e+00 1.386932e+00 8.844502e-01 2.659185e-01 -5.860499e-02 1.089117e-02 -4.492429e-02 1.523740e-03 -1.260014e-02 2.266478e-02 2.477452e-02 5.372287e-02 3.819759e-02 2.852942e-02
<VARIANCE> 16
 5.895838e+03 2.264802e+02 3.143723e+00 4.842579e+00 3.955394e-01 2.189393e-02 8.898068e+00 5.644152e+00 5.231887e-01 3.481641e-01 3.765577e-02 2.636550e+01 1.779998e+01 1.558469e+00 1.052878e+00 1.378320e-01
<GCONST> 4.508355e+01
<TRANSP> 5
 0.000000e+00 1.000000e+00 0.000000e+00 0.000000e+00 0.000000e+00
 0.000000e+00 6.883484e-01 3.116516e-01 0.000000e+00 0.000000e+00
 0.000000e+00 0.000000e+00 4.952830e-01 5.047171e-01 0.000000e+00
 0.000000e+00 0.000000e+00 0.000000e+00 9.103849e-01 8.961512e-02
 0.000000e+00 0.000000e+00 0.000000e+00 0.000000e+00 0.000000e+00
<ENDHMM>
~h "fp_screen_2"
<BEGINHMM>
<NUMSTATES> 5
<STATE> 2
<MEAN> 16
 3.533295e+02 7.533694e+00 1.569261e+01 2.024174e+00 5.834620e+00 5.748450e-01 3.092588e-01 1.869058e+00 1.605379e-01 7.726676e-01 1.108276e-01 3.988175e-01 -9.666917e-02 1.503602e-01 -3.035694e-01 8.446915e-02
<VARIANCE> 16
 9.455715e+03 4.048380e+02 4.512664e+02 8.540961e+00 2.998671e+01 2.618853e-01 1.480043e+01 7.867768e+02 9.115561e-01 6.517674e+01 2.591784e-01 3.866277e+01 1.912609e+03 1.930189e+00 1.625143e+02 4.845114e-01
<GCONST> 8.321346e+01
<STATE> 3
<MEAN> 16
 5.716522e+02 1.069512e+02 3.974493e+01 2.088307e+01 1.905735e+01 9.066168e+00 2.321947e+01 1.167150e+01 3.531113e+00 3.351246e+00 1.787731e+00 5.496894e+00 7.597563e+00 2.191940e-01 1.689145e+00 8.724717e-01
<VARIANCE> 16
 4.756443e+04 7.762983e+03 1.922174e+03 1.612572e+02 1.783015e+02 5.391216e+01 3.303789e+03 4.184479e+03 1.043488e+02 3.587515e+02 6.245618e+01 6.143678e+03 1.221647e+04 2.135749e+02 9.812584e+02 1.439775e+02
<GCONST> 1.374110e+02
<STATE> 4
<MEAN> 16
 4.313217e+02 5.725994e+01 2.907985e+01 1.036482e+01 9.551411e+00 4.648726e+00 -4.449583e+00 -7.391400e-01 8.350646e-02 1.009190e-02 2.443340e-01 -1.494616e+01 -1.477983e+01 -5.596364e-01 -2.618774e+00 -1.470003e+00
<VARIANCE> 16
 3.689044e+04 6.990623e+03 9.696473e+02 1.182074e+02 4.769562e+01 2.805420e+01 3.735241e+02 4.627986e+02 1.430648e+01 2.105391e+01 7.112224e+00 1.860974e+03 2.378086e+03 8.978449e+01 1.136320e+02 2.960714e+01
<GCONST> 1.152736e+02
<TRANSP> 5
 0.000000e+00 1.000000e+00 0.000000e+00 0.000000e+00 0.000000e+00
 0.000000e+00 5.739893e-01 4.260107e-01 0.000000e+00 0.000000e+00
 0.000000e+00 0.000000e+00 5.917545e-01 4.082455e-01 0.000000e+00
 0.000000e+00 0.000000e+00 0.000000e+00 2.021096e-01 7.978904e-01
 0.000000e+00 0.000000e+00 0.000000e+00 0.000000e+00 0.000000e+00
<ENDHMM>
~h "fp_screen_3"
<BEGINHMM>
<NUMSTATES> 5
<STATE> 2
<MEAN> 16
 4.408683e+02 4.453343e+01 1.873029e+01 1.059015e+01 8.617450e+00 5.054799e+00 -1.924679e+01 -1.555133e+01 -9.001378e-01 -2.318345e+00 -1.235405e-01 -1.480040e+01 -1.497050e+01 -1.027699e+00 -2.348848e+00 -6.005762e-01
<VARIANCE> 16
 3.652399e+04 4.046154e+03 1.264685e+03 1.479273e+02 1.342432e+02 4.162807e+01 2.137370e+03 2.670740e+03 3.918637e+01 6.948760e+01 1.058429e+01 2.686227e+03 4.189683e+03 6.304553e+01 1.000812e+02 2.762033e+01
<GCONST> 1.231160e+02
<STATE> 3
<MEAN> 16
 5.056386e+02 7.668626e+01 4.123549e+01 1.732619e+01 1.727122e+01 8.559989e+00 -1.045435e+01 -4.875726e+00 -2.482649e+00 -2.292211e+00 -1.350458e+00 6.159430e+00 3.829593e+00 6.212793e-02 3.359392e-01 -1.324119e-01
<VARIANCE> 16
 4.008649e+04 8.222678e+03 3.326633e+03 2.329294e+02 3.045260e+02 7.185231e+01 4.919276e+03 6.433540e+03 2.068147e+02 3.610575e+02 5.600875e+01 1.204356e+04 2.164541e+04 5.663929e+02 1.106271e+03 1.501832e+02
<GCONST> 1.428286e+02
<STATE> 4
<MEAN> 16
 3.398353e+02 9.675591e+00 2.913296e+00 1.974065e+00 1.106933e+00 5.418884e-01 -1.171305e-01 1.687042e-01 -9.204850e-03 2.724333e-02 -1.465082e-02 7.495224e-02 4.005717e-01 6.744903e-02 1.185698e-01 3.749969e-02
<VARIANCE> 16
 3.956173e+03 4.152004e+02 1.108239e+01 8.333194e+00 7.130017e-01 7.947932e-01 1.328362e+01 1.253993e+01 8.019301e-01 5.603948e-01 2.809984e-01 3.187890e+01 4.455341e+01 2.199300e+00 2.245834e+00 8.091780e-01
<GCONST> 5.936580e+01
<TRANSP> 5
 0.000000e+00 1.000000e+00 0.000000e+00 0.000000e+00 0.000000e+00
 0.000000e+00 1.469185e-02 9.853082e-01 0.000000e+00 0.000000e+00
 0.000000e+00 0.000000e+00 6.777346e-01 3.222654e-01 0.000000e+00
 0.000000e+00 0.000000e+00 0.000000e+00 9.257697e-01 7.423034e-02
 0.000000e+00 0.000000e+00 0.000000e+00 0.000000e+00 0.000000e+00
<ENDHMM>
~h "fp_screen_4"
<BEGINHMM>
<NUMSTATES> 5
<STATE> 2
<MEAN> 16
 2.827463e+02 2.029950e+01 8.735421e+00 4.664869e+00 3.374279e+00 1.780719e+00 -5.914879e-02 2.715721e+00 -6.600125e-02 6.530566e-01 1.583076e-01 4.033166e-01 2.105988e+00 -1.150009e-01 5.917264e-01 1.529372e-01
<VARIANCE> 16
 7.133347e+03 5.356932e+02 6.760409e+01 1.509656e+01 4.354434e+00 3.259140e+00 6.176659e+01 9.533703e+01 6.349935e+00 7.217798e+00 1.825689e+00 1.117061e+02 2.116387e+02 1.495160e+01 1.681616e+01 5.018510e+00
<GCONST> 8.446171e+01
<STATE> 3
<MEAN> 16
 3.596384e+02 1.503348e+01 3.298739e+01 5.729047e+00 6.026896e+00 2.673332e+00 -3.172873e+00 4.220127e+00 -8.005881e-02 -1.100547e-01 2.117350e-01 -3.432563e+00 -1.686017e+00 -2.448953e-01 -1.306737e+00 -1.512263e-01
<VARIANCE> 16
 6.250055e+04 4.642574e+02 1.798148e+03 3.905183e+01 4.413268e+01 8.089334e+00 6.055221e+02 3.134221e+03 3.545584e+01 6.753860e+01 1.066026e+01 1.375390e+03 9.013575e+03 6.283742e+01 1.995857e+02 2.985182e+01
<GCONST> 1.173963e+02
<STATE> 4
<MEAN> 16
 1.741028e+02 4.868756e+00 1.005905e+01 1.959208e+00 2.299817e+00 7.846946e-01 -2.179672e-01 -2.565823e+00 -1.764229e-01 -1.665793e-01 -1.276760e-01 9.993244e-01 -7.285488e-01 1.022411e-01 2.279437e-01 7.989451e-03
<VARIANCE> 16
 5.378329e+03 1.903975e+01 1.210175e+02 1.771518e+00 2.511901e+00 4.429751e-01 2.387331e+01 2.457899e+02 2.057604e+00 3.911767e+00 5.574472e-01 9.106750e+01 8.449955e+02 7.983914e+00 1.195496e+01 1.315148e+00
<GCONST> 7.267911e+01
<TRANSP> 5
 0.000000e+00 1.000000e+00 0.000000e+00 0.000000e+00 0.000000e+00
 0.000000e+00 5.521416e-01 4.478584e-01 0.000000e+00 0.000000e+00
 0.000000e+00 0.000000e+00 3.806829e-01 6.193171e-01 0.000000e+00
 0.000000e+00 0.000000e+00 0.000000e+00 7.856813e-01 2.143187e-01
 0.000000e+00 0.000000e+00 0.000000e+00 0.000000e+00 0.000000e+00
<ENDHMM>
~h "fp_screen_5"
<BEGINHMM>
<NUMSTATES> 5
<STATE> 2
<MEAN> 16
 1.825956e+02 1.019778e+01 1.810441e+01 4.057950e+00 6.894523e+00 2.006577e+00 3.960445e+00 9.053187e+00 1.305152e+00 3.749753e+00 7.547440e-01 2.999490e+00 8.134122e+00 1.143987e+00 2.959466e+00 4.280320e-01
<VARIANCE> 16
 1.769242e+03 1.462791e+02 2.837625e+02 7.297715e+00 1.854687e+01 2.663562e+00 1.504680e+02 3.823890e+02 6.123930e+00 2.258282e+01 2.822830e+00 1.995836e+02 6.456996e+02 8.573962e+00 3.521730e+01 4.777489e+00
<GCONST> 8.937359e+01
<STATE> 3
<MEAN> 16
 2.710756e+02 3.967641e+00 1.673297e+01 1.977539e+00 3.679631e+00 8.654643e-01 -4.126637e+00 -7.965812e+00 -1.187976e+00 -3.666944e+00 -7.858977e-01 -3.343150e+00 -1.673305e+01 -1.378507e+00 -4.697271e+00 -7.083057e-01
<VARIANCE> 16
 2.047807e+03 1.273017e+01 3.163391e+02 1.489739e+00 2.048619e+01 8.338732e-01 1.120340e+02 6.886097e+02 5.109514e+00 4.370945e+01 2.405241e+00 5.698345e+02 1.788279e+03 2.423720e+01 1.571248e+02 9.502440e+00
<GCONST> 9.043864e+01
<STATE> 4
<MEAN> 16
 3.280771e+02 2.924139e+00 3.047189e+00 1.475834e+00 1.300269e+00 3.854154e-01 1.359624e-02 -4.452979e-01 4.244452e-02 -1.805559e-04 -7.266127e-03 2.200099e-01 2.882194e+00 1.731221e-01 5.794097e-01 9.737138e-02
<VARIANCE> 16
 8.522360e+02 4.818991e+00 5.289234e+00 5.827896e-01 6.675653e-01 8.336335e-02 8.983132e+00 1.215253e+01 6.935782e-01 7.008744e-01 7.830558e-02 2.704605e+01 1.258869e+02 2.308707e+00 5.017030e+00 2.985985e-01
<GCONST> 4.676177e+01
<TRANSP> 5
 0.000000e+00 1.000000e+00 0.000000e+00 0.000000e+00 0.000000e+00
 0.000000e+00 4.142915e-01 5.857086e-01 0.000000e+00 0.000000e+00
 0.000000e+00 0.000000e+00 5.113466e-01 4.886534e-01 0.000000e+00
 0.000000e+00 0.000000e+00 0.000000e+00 8.583897e-01 1.416104e-01
 0.000000e+00 0.000000e+00 0.000000e+00 0.000000e+00 0.000000e+00
<ENDHMM>
~h "bg_white_0_0"
<BEGINHMM>
<NUMSTATES> 5
<STATE> 2
<MEAN> 16
 7.672371e+02 3.353569e+00 5.546591e+00 1.720977e+00 2.299983e+00 8.661464e-01 4.976907e-01 -1.316470e+00 4.128625e-01 2.450649e-01 2.367968e-01 9.773441e-01 9.229622e+00 6.449382e-01 3.388758e+00 3.508216e-01
<VARIANCE> 16
 4.942874e+03 8.023239e+01 1.724745e+02 1.187360e+01 2.508121e+01 1.557227e+00 2.464142e+01 4.677678e+02 5.318005e+00 4.193639e+01 1.584822e+00 5.528827e+01 2.675196e+03 8.202784e+00 1.837060e+02 2.099302e+00
<GCONST> 8.877013e+01
<STATE> 3
<MEAN> 16
 7.477132e+02 2.868965e+01 1.392851e+01 1.016721e+01 9.296774e+00 6.580847e+00 2.007852e+00 -2.981291e-01 8.352188e-01 2.384816e-01 4.649481e-01 -1.540237e+00 -2.234268e-02 -5.370710e-01 -7.556411e-01 -2.536092e-01
<VARIANCE> 16
 4.051500e+03 1.126577e+03 3.635738e+02 8.825739e+01 8.296062e+01 4.128339e+01 7.970449e+02 6.129730e+02 6.889124e+01 1.001072e+02 3.938697e+01 1.696938e+03 1.921032e+03 1.681224e+02 2.818228e+02 9.930341e+01
<GCONST> 1.192277e+02
<STATE> 4
<MEAN> 16
 7.814410e+02 3.644540e+00 1.708164e+00 1.690377e+00 1.148240e+00 1.008515e+00 -3.057921e-02 -7.739560e-02 -1.201302e-03 -3.174534e-02 -7.148296e-03 3.266075e-01 2.814705e-01 1.001777e-01 2.196488e-01 4.718547e-02
<VARIANCE> 16
 1.426193e+03 5.447672e+01 5.242615e+00 8.233571e+00 2.722223e+00 2.814630e+00 1.354455e+01 6.592817e+00 1.901364e+00 1.563019e+00 1.306214e+00 5.487978e+01 3.039253e+01 6.403754e+00 7.297027e+00 3.669653e+00
<GCONST> 6.487997e+01
<TRANSP> 5
 0.000000e+00 1.000000e+00 0.000000e+00 0.000000e+00 0.000000e+00
 0.000000e+00 2.907574e-02 9.709243e-01 0.000000e+00 0.000000e+00
 0.000000e+00 0.000000e+00 5.632011e-01 4.367989e-01 0.000000e+00
 0.000000e+00 0.000000e+00 0.000000e+00 8.731126e-01 1.268875e-01
 0.000000e+00 0.000000e+00 0.000000e+00 0.000000e+00 0.000000e+00
<ENDHMM>
~h "bg_white_0_1"
<BEGINHMM>
<NUMSTATES> 5
<STATE> 2
<MEAN> 16
 7.779875e+02 6.574643e+00 3.255738e+00 3.819149e+00 2.839658e+00 2.727830e+00 1.299897e-01 4.271145e-01 4.166368e-01 5.637334e-01 5.268438e-01 3.219925e-01 5.361594e-01 3.570677e-01 4.823514e-01 4.007464e-01
<VARIANCE> 16
 2.393840e+03 1.285509e+02 1.563989e+01 2.251663e+01 9.712831e+00 8.782604e+00 4.878541e+01 1.654275e+01 1.100017e+01 7.323726e+00 5.996336e+00 1.028789e+02 4.331384e+01 2.005186e+01 1.556354e+01 1.271534e+01
<GCONST> 8.191496e+01
<STATE> 3
<MEAN> 16
 7.086586e+02 5.186701e+01 1.962118e+01 1.618005e+01 1.560302e+01 1.093548e+01 3.444583e+00 1.128842e+00 1.219477e+00 1.112826e+00 5.872481e-01 -7.737259e-01 -9.555375e-01 -1.218838e-01 -4.520954e-01 -4.342175e-01
<VARIANCE> 16
 3.415841e+03 1.309731e+03 3.236183e+02 7.412039e+01 9.005339e+01 4.050809e+01 1.272000e+03 6.573022e+02 9.723968e+01 1.729221e+02 6.799567e+01 3.054104e+03 1.869082e+03 2.404674e+02 4.748867e+02 1.797112e+02
<GCONST> 1.229874e+02
<STATE> 4
<MEAN> 16
 6.744449e+02 6.773129e+01 6.651793e+00 1.762128e+01 5.380876e+00 3.857829e+00 -2.885204e+00 -2.291848e+00 -1.295922e+00 -2.131541e+00 -1.000854e+00 -2.216555e-01 8.244821e-01 -1.105596e+00 -9.538397e-01 -1.384681e-02
<VARIANCE> 16
 2.256831e+04 6.185710e+03 3.963235e+01 2.201552e+02 3.156622e+01 1.720138e+01 3.541024e+02 9.116177e+01 3.200460e+01 4.392549e+01 1.401956e+01 9.661937e+02 4.425738e+02 9.841489e+01 1.741146e+02 5.964568e+01
<GCONST> 1.106057e+02
<TRANSP> 5
 0.000000e+00 1.000000e+00 0.000000e+00 0.000000e+00 0.000000e+00
 0.000000e+00 5.348506e-01 4.651494e-01 0.000000e+00 0.000000e+00
 0.000000e+00 0.000000e+00 8.307450e-01 1.692551e-01 0.000000e+00
 0.000000e+00 0.000000e+00 0.000000e+00 4.362039e-01 5.637961e-01
 0.000000e+00 0.000000e+00 0.000000e+00 0.000000e+00 0.000000e+00
<ENDHMM>
~h "bg_white_0_2"
<BEGINHMM>
<NUMSTATES> 5
<STATE> 2
<MEAN> 16
 7.679554e+02 1.220641e+01 4.487789e+00 5.711522e+00 4.357130e+00 3.830801e+00 -1.173908e+00 -1.648230e-01 -4.724905e-01 -1.498943e-01 4.715369e-02 5.835344e-01 1.291502e+00 3.562940e-01 1.243642e+00 7.423689e-01
<VARIANCE> 16
 2.753227e+03 3.967673e+02 2.484649e+01 3.635946e+01 1.909610e+01 1.247683e+01 8.662983e+01 3.540055e+01 1.419879e+01 1.770319e+01 8.461670e+00 2.557210e+02 1.189717e+02 3.886581e+01 6.209714e+01 2.438507e+01
<GCONST> 9.258601e+01
<STATE> 3
<MEAN> 16
 7.090949e+02 4.875445e+01 2.269645e+01 1.759600e+01 1.617189e+01 1.087555e+01 2.743762e+00 2.244461e+00 1.046607e+00 1.437366e+00 6.282994e-01 7.543982e-01 3.143133e-01 4.528003e-01 5.592433e-01 8.516312e-02
<VARIANCE> 16
 3.987205e+03 1.306111e+03 4.066522e+02 9.961903e+01 9.514845e+01 3.899815e+01 1.282817e+03 8.700875e+02 1.291660e+02 1.832683e+02 6.290430e+01 3.142684e+03 2.513901e+03 3.280733e+02 5.212360e+02 1.610510e+02
<GCONST> 1.248526e+02
<STATE> 4
<MEAN> 16
 7.452032e+02 2.800475e+01 1.066309e+01 1.125167e+01 8.921732e+00 6.469539e+00 -3.158333e+00 -5.117406e+00 -1.434966e+00 -3.364807e+00 -1.228917e+00 -2.711063e+00 -5.209805e+00 -2.049109e+00 -5.092761e+00 -1.814232e+00
<VARIANCE> 16
 6.116187e+03 9.166505e+02 9.411086e+01 6.354049e+01 5.338145e+01 2.284838e+01 3.684963e+02 2.364603e+02 3.778584e+01 9.459265e+01 2.405701e+01 1.428129e+03 1.082063e+03 1.631243e+02 3.346668e+02 8.964913e+01
<GCONST> 1.131394e+02
<TRANSP> 5
 0.000000e+00 1.000000e+00 0.000000e+00 0.000000e+00 0.000000e+00
 0.000000e+00 6.190966e-01 3.809034e-01 0.000000e+00 0.000000e+00
 0.000000e+00 0.000000e+00 7.900752e-01 2.099247e-01 0.000000e+00
 0.000000e+00 0.000000e+00 0.000000e+00 2.381762e-01 7.618238e-01
 0.000000e+00 0.000000e+00 0.000000e+00 0.000000e+00 0.000000e+00
<ENDHMM>
~h "bg_white_0_3"
<BEGINHMM>
<NUMSTATES> 5
<STATE> 2
<MEAN> 16
 7.594647e+02 2.010617e+01 5.925079e+00 8.325506e+00 5.723112e+00 4.820871e+00 -1.473736e+00 -1.675408e+00 -6.698650e-01 -7.304167e-01 -3.192820e-01 6.244699e-01 1.799409e+00 5.051950e-01 1.812674e+00 8.447120e-01
<VARIANCE> 16
 4.063812e+03 7.415314e+02 4.335144e+01 5.163741e+01 3.339520e+01 1.932773e+01 1.478348e+02 6.548090e+01 1.704704e+01 3.012006e+01 1.144232e+01 4.287683e+02 2.628579e+02 5.145043e+01 1.093378e+02 3.110970e+01
<GCONST> 1.000696e+02
<STATE> 3
<MEAN> 16
 7.187413e+02 4.493384e+01 2.024655e+01 1.533179e+01 1.477130e+01 9.999301e+00 -1.982291e+00 5.341549e-01 -4.936296e-01 1.637546e-01 -9.249268e-02 -2.580229e+00 -1.054121e+00 -9.031384e-01 -7.027133e-01 -6.797478e-01
<VARIANCE> 16
 4.102147e+03 1.291637e+03 3.689923e+02 7.934119e+01 9.357164e+01 3.792033e+01 1.206530e+03 6.960654e+02 9.512580e+01 1.786365e+02 5.834408e+01 2.913699e+03 2.005477e+03 2.221781e+02 4.876980e+02 1.458821e+02
<GCONST> 1.229524e+02
<STATE> 4
<MEAN> 16
 7.655106e+02 1.132574e+01 5.001009e+00 5.526176e+00 4.278558e+00 3.102791e+00 -5.897203e+00 -4.504160e+00 -2.584463e+00 -3.438298e+00 -2.196930e+00 6.777546e+00 1.574248e+00 1.797601e+00 4.634268e-01 9.677336e-01
<VARIANCE> 16
 5.489362e+03 3.092077e+02 3.975166e+01 3.570969e+01 2.205248e+01 1.096751e+01 2.382324e+02 1.179691e+02 2.678623e+01 4.884621e+01 1.576641e+01 1.277453e+03 7.015958e+02 1.415692e+02 2.560698e+02 9.397389e+01
<GCONST> 1.054224e+02
<TRANSP> 5
 0.000000e+00 1.000000e+00 0.000000e+00 0.000000e+00 0.000000e+00
 0.000000e+00 4.221400e-01 5.778600e-01 0.000000e+00 0.000000e+00
 0.000000e+00 0.000000e+00 7.926277e-01 2.073724e-01 0.000000e+00
 0.000000e+00 0.000000e+00 0.000000e+00 1.940255e-01 8.059745e-01
 0.000000e+00 0.000000e+00 0.000000e+00 0.000000e+00 0.000000e+00
<ENDHMM>
~h "bg_white_0_4"
<BEGINHMM>
<NUMSTATES> 5
<STATE> 2
<MEAN> 16
 7.814682e+02 2.972148e+00 1.534544e+00 1.511747e+00 1.130051e+00 9.989444e-01 -2.223458e-01 -1.020402e-01 -1.252303e-01 -9.172697e-02 -7.154228e-02 3.565921e-01 3.560437e-01 1.734700e-01 2.509859e-01 1.467429e-01
<VARIANCE> 16
 1.125696e+03 3.404397e+01 3.800965e+00 5.619349e+00 2.301074e+00 2.501677e+00 1.372842e+01 6.216869e+00 2.088890e+00 2.022038e+00 1.417137e+00 4.680762e+01 2.524753e+01 6.392539e+00 8.245090e+00 4.293629e+00
<GCONST> 6.350442e+01
<STATE> 3
<MEAN> 16
 7.333775e+02 3.990132e+01 1.668251e+01 1.169991e+01 1.253833e+01 8.378119e+00 3.651646e-02 9.262425e-01 2.930674e-02 1.799063e-01 1.206024e-01 -2.052426e+00 -1.070044e+00 -5.716627e-01 -9.591712e-01 -4.667314e-01
<VARIANCE> 16
 4.477499e+03 1.270654e+03 3.226492e+02 8.196568e+01 9.871870e+01 4.746074e+01 1.193665e+03 6.375818e+02 7.736174e+01 1.439195e+02 5.679533e+01 2.820130e+03 1.815965e+03 1.800348e+02 3.813616e+02 1.475188e+02
<GCONST> 1.220746e+02
<STATE> 4
<MEAN> 16
 6.159832e+02 5.920231e+00 5.569132e+00 2.652486e+00 2.401865e+00 1.102088e+00 -1.578635e+00 -1.249640e+00 -4.834510e-01 -5.975683e-01 -6.281058e-01 4.444016e+00 2.245445e+00 1.249529e+00 2.157779e+00 7.986755e-01
<VARIANCE> 16
 7.120684e+04 8.061775e+01 5.705536e+01 1.776564e+01 9.011000e+00 3.078721e+00 7.824294e+01 9.737908e+01 9.510481e+00 1.293972e+01 4.872059e+00 3.314324e+02 5.370567e+02 4.298392e+01 7.857430e+01 2.216876e+01
<GCONST> 9.386107e+01
<TRANSP> 5
 0.000000e+00 1.000000e+00 0.000000e+00 0.000000e+00 0.000000e+00
 0.000000e+00 9.289753e-01 7.102473e-02 0.000000e+00 0.000000e+00
 0.000000e+00 0.000000e+00 7.176815e-01 2.823185e-01 0.000000e+00
 0.000000e+00 0.000000e+00 0.000000e+00 2.953760e-01 7.046240e-01
 0.000000e+00 0.000000e+00 0.000000e+00 0.000000e+00 0.000000e+00
<ENDHMM>
~h "bg_white_0_5"
<BEGINHMM>
<NUMSTATES> 5
<STATE> 2
<MEAN> 16
 7.290831e+02 3.938525e+00 3.772164e+00 1.902877e+00 2.149270e+00 1.015576e+00 -2.507802e-01 1.036530e-01 -3.790234e-01 -2.330866e-03 -2.784222e-01 1.208838e+00 8.466502e-01 6.953150e-02 4.850546e-01 2.874160e-01
<VARIANCE> 16
 1.185360e+04 6.209175e+01 4.159215e+01 1.346337e+01 1.057670e+01 3.133412e+00 3.207374e+01 3.760442e+01 8.408051e+00 6.746094e+00 2.825577e+00 8.494777e+01 1.010723e+02 1.843938e+01 1.890864e+01 7.829005e+00
<GCONST> 8.188554e+01
<STATE> 3
<MEAN> 16
 6.758401e+02 2.258689e+01 1.261623e+01 5.525267e+00 6.117244e+00 2.079368e+00 1.250576e+00 3.790253e+00 1.175560e-01 1.783222e+00 9.157121e-02 5.568860e-01 2.749145e+00 5.637037e-01 1.540248e+00 4.166529e-01
<VARIANCE> 16
 3.265539e+04 2.480365e+03 4.817852e+02 7.338291e+01 7.987283e+01 1.819186e+01 2.523612e+02 5.628615e+02 2.874028e+01 9.341440e+01 1.752440e+01 5.422266e+02 1.055841e+03 6.456450e+01 1.809769e+02 4.322774e+01
<GCONST> 1.143837e+02
<STATE> 4
<MEAN> 16
 5.781096e+02 4.459064e+00 2.893947e+01 1.255365e+00 6.616380e+00 4.471941e-01 6.501485e-01 2.809207e+00 1.943026e-01 3.377998e-01 2.993738e-02 1.857640e-02 -3.159355e+00 -9.832390e-03 -1.316756e+00 -5.412935e-02
<VARIANCE> 16
 4.887186e+04 1.467692e+02 3.982215e+03 7.539275e+00 1.411928e+02 6.307346e-01 7.177342e+01 8.357964e+03 3.622632e+00 2.775946e+02 3.024942e-01 9.511221e+01 2.259208e+04 5.805200e+00 7.232883e+02 9.651676e-01
<GCONST> 1.019005e+02
<TRANSP> 5
 0.000000e+00 1.000000e+00 0.000000e+00 0.000000e+00 0.000000e+00
 0.000000e+00 3.385106e-01 6.614894e-01 0.000000e+00 0.000000e+00
 0.000000e+00 0.000000e+00 2.907125e-01 7.092875e-01 0.000000e+00
 0.000000e+00 0.000000e+00 0.000000e+00 7.515390e-01 2.484610e-01
 0.000000e+00 0.000000e+00 0.000000e+00 0.000000e+00 0.000000e+00
<ENDHMM>
~h "bg_dark_0"
<BEGINHMM>
<NUMSTATES> 5
<STATE> 2
<MEAN> 16
 1.966405e+02 2.191030e+01 9.320026e+00 4.113656e+00 2.828639e+00 9.757090e-01 -5.650516e-01 2.579903e-01 -1.505310e-01 -1.771557e-01 -1.683098e-01 -3.792393e-01 -1.863360e-01 -2.603775e-03 -5.582123e-02 -3.356250e-02
<VARIANCE> 16
 6.171567e+03 8.558866e+02 7.167963e+01 1.077284e+01 2.299628e+00 5.996842e-01 3.000084e+02 1.264699e+02 8.364055e+00 6.376375e+00 1.207286e+00 6.897364e+02 3.472792e+02 2.120569e+01 1.719608e+01 3.311997e+00
<GCONST> 8.604817e+01
<STATE> 3
<MEAN> 16
 1.830170e+02 8.782773e+00 8.476515e+00 1.672491e+00 1.816989e+00 4.011686e-01 2.241680e-01 -3.441557e-01 -3.495909e-03 -6.137372e-02 -3.945502e-03 1.067730e+00 -4.069456e-01 8.689018e-02 2.135414e-02 3.348807e-02
<VARIANCE> 16
 8.139464e+03 7.591298e+01 7.605538e+01 1.065705e+00 1.417073e+00 7.157632e-02 4.455146e+01 1.313981e+02 8.511665e-01 1.735026e+00 6.593627e-02 1.186107e+02 3.893543e+02 2.616253e+00 5.500959e+00 2.214379e-01
<GCONST> 6.309187e+01
<STATE> 4
<MEAN> 16
 2.069653e+02 1.283092e+01 1.661053e+01 4.153336e+00 4.752835e+00 1.676365e+00 3.530541e+00 4.238045e+00 9.180294e-01 1.128901e+00 5.890067e-01 1.275130e+00 1.595591e+00 2.846194e-01 1.161134e-01 2.179374e-01
<VARIANCE> 16
 3.451069e+03 9.502568e+01 1.475998e+02 5.576137e+00 8.509775e+00 1.120093e+00 1.137222e+02 2.592681e+02 7.576728e+00 1.814330e+01 1.212793e+00 2.424701e+02 6.398083e+02 1.555026e+01 4.155698e+01 2.606057e+00
<GCONST> 8.586320e+01
<TRANSP> 5
 0.000000e+00 1.000000e+00 0.000000e+00 0.000000e+00 0.000000e+00
 0.000000e+00 7.525303e-01 2.474697e-01 0.000000e+00 0.000000e+00
 0.000000e+00 0.000000e+00 8.061240e-01 1.938761e-01 0.000000e+00
 0.000000e+00 0.000000e+00 0.000000e+00 3.847512e-01 6.152488e-01
 0.000000e+00 0.000000e+00 0.000000e+00 0.000000e+00 0.000000e+00
<ENDHMM>
~h "bg_dark_0_0"
<BEGINHMM>
<NUMSTATES> 5
<STATE> 2
<MEAN> 16
 1.915921e+02 1.810117e+01 9.724133e+00 4.125485e+00 2.797001e+00 1.034379e+00 -2.857446e+00 -2.978014e+00 -4.638613e-01 -8.950750e-01 -3.924830e-01 -7.057928e+00 -3.373753e+00 -8.917980e-01 -8.487316e-01 -6.602310e-01
<VARIANCE> 16
 6.140313e+03 5.089562e+02 6.680515e+01 7.092307e+00 2.260040e+00 4.989062e-01 2.375685e+02 1.439566e+02 7.621907e+00 7.220391e+00 8.167769e-01 5.136664e+02 4.669521e+02 2.143419e+01 3.419429e+01 2.312915e+00
<GCONST> 8.471073e+01
<STATE> 3
<MEAN> 16
 2.004452e+02 7.262044e+00 8.152293e+00 2.264948e+00 2.675885e+00 7.410811e-01 1.170656e-01 -2.368785e-01 -1.991074e-01 -7.540521e-02 -9.224617e-02 1.411124e+00 1.030700e+00 1.589024e-01 3.139357e-01 1.061126e-01
<VARIANCE> 16
 3.957283e+03 4.614582e+01 4.409542e+01 1.741237e+00 2.117934e+00 2.525838e-01 4.331501e+01 7.478725e+01 1.910421e+00 2.456248e+00 2.658460e-01 1.415583e+02 2.386449e+02 5.736924e+00 6.887122e+00 9.138507e-01
<GCONST> 6.755499e+01
<STATE> 4
<MEAN> 16
 1.525999e+02 1.385455e+01 1.591756e+01 3.459809e+00 3.265501e+00 1.028711e+00 7.171252e-01 1.508762e+00 1.305434e-01 1.220896e-01 6.691647e-02 -1.008953e+00 -2.156923e+00 -1.875842e-02 -8.333564e-02 6.405462e-02
<VARIANCE> 16
 3.200801e+03 1.409124e+02 1.852158e+02 4.805930e+00 4.309760e+00 7.078071e-01 2.321317e+02 4.393957e+02 6.086885e+00 8.022185e+00 6.416679e-01 5.608403e+02 1.092433e+03 1.530538e+01 2.426682e+01 1.556544e+00
<GCONST> 8.499474e+01
<TRANSP> 5
 0.000000e+00 1.000000e+00 0.000000e+00 0.000000e+00 0.000000e+00
 0.000000e+00 2.291341e-01 7.708659e-01 0.000000e+00 0.000000e+00
 0.000000e+00 0.000000e+00 6.979426e-01 3.020574e-01 0.000000e+00
 0.000000e+00 0.000000e+00 0.000000e+00 4.262961e-01 5.737039e-01
 0.000000e+00 0.000000e+00 0.000000e+00 0.000000e+00 0.000000e+00
<ENDHMM>
~h "bg_dark_0_1"
<BEGINHMM>
<NUMSTATES> 5
<STATE> 2
<MEAN> 16
 1.330066e+02 7.475113e+00 6.175597e+00 2.181029e+00 2.417601e+00 8.176516e-01 -5.487299e-01 -2.263210e+00 5.410864e-02 -4.493678e-02 8.543128e-02 7.253289e-01 4.706900e-01 2.430842e-01 1.715845e-01 1.096396e-01
<VARIANCE> 16
 3.621374e+03 6.058921e+01 2.201151e+01 2.139323e+00 3.077435e+00 5.221121e-01 7.607108e+01 1.009624e+02 2.351518e+00 3.508278e+00 4.433860e-01 2.360645e+02 4.880799e+02 5.384753e+00 1.056333e+01 1.001916e+00
<GCONST> 7.197179e+01
<STATE> 3
<MEAN> 16
 1.656982e+02 1.921253e+01 1.944423e+01 4.228527e+00 4.178980e+00 1.438921e+00 1.252084e+00 6.518866e-01 4.229031e-02 -4.695564e-02 -7.933621e-02 -3.127061e+00 -4.339144e+00 -6.869324e-01 -7.944217e-01 -3.950890e-01
<VARIANCE> 16
 4.683162e+03 3.326880e+02 4.094896e+02 9.923539e+00 8.316349e+00 1.257542e+00 4.524695e+02 1.012321e+03 1.325187e+01 1.767025e+01 2.052260e+00 1.095113e+03 2.789896e+03 3.085550e+01 4.659331e+01 4.598373e+00
<GCONST> 9.726070e+01
<STATE> 4
<MEAN> 16
 1.800694e+02 7.769953e+00 7.577918e+00 1.801442e+00 1.843812e+00 4.682145e-01 -8.888317e-01 1.493149e-02 -2.144998e-01 -1.103023e-01 -5.587218e-02 2.138007e+00 3.784193e+00 2.820912e-01 4.674360e-01 1.760625e-01
<VARIANCE> 16
 5.822071e+03 6.744177e+01 6.425532e+01 9.888200e-01 1.425691e+00 1.083875e-01 6.093676e+01 9.526082e+01 1.361009e+00 1.656266e+00 1.558186e-01 2.177213e+02 4.261405e+02 4.554741e+00 6.063457e+00 7.206162e-01
<GCONST> 6.661991e+01
<TRANSP> 5
 0.000000e+00 1.000000e+00 0.000000e+00 0.000000e+00 0.000000e+00
 0.000000e+00 5.382248e-01 4.617752e-01 0.000000e+00 0.000000e+00
 0.000000e+00 0.000000e+00 6.242979e-01 3.757021e-01 0.000000e+00
 0.000000e+00 0.000000e+00 0.000000e+00 7.427827e-01 2.572173e-01
 0.000000e+00 0.000000e+00 0.000000e+00 0.000000e+00 0.000000e+00
<ENDHMM>
~h "bg_dark_0_2"
<BEGINHMM>
<NUMSTATES> 5
<STATE> 2
<MEAN> 16
 1.328529e+02 8.513240e+00 1.034537e+01 2.444803e+00 3.356995e+00 9.584815e-01 5.355327e-01 1.114028e+00 2.840736e-01 4.683759e-01 1.487359e-01 7.859936e-01 2.944604e-01 3.647139e-01 3.916833e-01 1.600216e-01
<VARIANCE> 16
 3.627224e+03 7.581185e+01 8.738876e+01 2.514862e+00 3.841197e+00 5.005006e-01 5.890121e+01 1.454501e+02 2.312206e+00 4.452065e+00 4.632017e-01 1.269571e+02 3.822638e+02 5.249063e+00 9.943028e+00 1.101097e+00
<GCONST> 7.343560e+01
<STATE> 3
<MEAN> 16
 1.551678e+02 1.963818e+01 1.600759e+01 4.600739e+00 4.739908e+00 1.714165e+00 1.838624e+00 -4.090062e-01 1.053659e-01 -1.438835e-01 -2.775808e-02 -1.416848e+00 -2.260278e+00 -4.813180e-01 -8.697039e-01 -2.504883e-01
<VARIANCE> 16
 3.481559e+03 2.780938e+02 1.706257e+02 1.252998e+01 1.149429e+01 2.194691e+00 4.395982e+02 3.824976e+02 1.359931e+01 2.174953e+01 3.374277e+00 1.095209e+03 1.118445e+03 3.193420e+01 6.169809e+01 8.015906e+00
<GCONST> 9.670884e+01
<STATE> 4
<MEAN> 16
 1.243232e+02 1.622749e+01 6.909994e+00 2.705139e+00 1.409716e+00 4.289530e-01 -9.980634e-01 -4.439155e-01 -1.050367e-01 -1.517093e-01 -5.559971e-02 2.023052e-01 1.024006e+00 2.140558e-01 4.888819e-01 1.121311e-01
<VARIANCE> 16
 3.689986e+03 2.627588e+02 4.029178e+01 2.953002e+00 1.180280e+00 1.225815e-01 1.655599e+02 5.225494e+01 2.761524e+00 9.153438e-01 8.371294e-02 4.234336e+02 1.877179e+02 8.927533e+00 4.694031e+00 3.721938e-01
<GCONST> 6.757925e+01
<TRANSP> 5
 0.000000e+00 1.000000e+00 0.000000e+00 0.000000e+00 0.000000e+00
 0.000000e+00 6.067867e-01 3.932134e-01 0.000000e+00 0.000000e+00
 0.000000e+00 0.000000e+00 7.077176e-01 2.922824e-01 0.000000e+00
 0.000000e+00 0.000000e+00 0.000000e+00 7.631418e-01 2.368582e-01
 0.000000e+00 0.000000e+00 0.000000e+00 0.000000e+00 0.000000e+00
<ENDHMM>
~h "bg_dark_0_3"
<BEGINHMM>
<NUMSTATES> 5
<STATE> 2
<MEAN> 16
 1.151127e+02 9.854588e+00 9.638307e+00 2.740206e+00 2.601481e+00 7.919148e-01 -5.032970e-01 1.473287e+00 3.240680e-01 4.428070e-01 1.244332e-01 8.600470e-01 2.501807e+00 3.417540e-01 4.783404e-01 1.565640e-01
<VARIANCE> 16
 1.804744e+03 1.005206e+02 7.089648e+01 3.128228e+00 2.783387e+00 3.790452e-01 1.138706e+02 1.068819e+02 2.486213e+00 2.216659e+00 3.438376e-01 3.128921e+02 2.564819e+02 5.435283e+00 4.289103e+00 6.983663e-01
<GCONST> 7.109868e+01
<STATE> 3
<MEAN> 16
 1.704499e+02 2.013601e+01 1.443190e+01 4.809383e+00 4.465025e+00 1.593374e+00 3.227189e-01 -1.823886e-01 -1.494559e-01 4.857931e-02 3.023746e-02 -1.645452e+00 -2.559257e+00 -6.440796e-01 -2.858819e-01 -1.182400e-01
<VARIANCE> 16
 8.713619e+03 4.021140e+02 1.624671e+02 1.085569e+01 1.035187e+01 1.139927e+00 4.091023e+02 2.956740e+02 1.693234e+01 1.667591e+01 1.651830e+00 9.737213e+02 7.866641e+02 4.402245e+01 4.265960e+01 3.770118e+00
<GCONST> 9.468098e+01
<STATE> 4
<MEAN> 16
 1.139643e+02 8.275041e+00 8.431781e+00 2.213500e+00 2.800136e+00 7.895055e-01 -3.626064e+00 -1.106094e+00 -5.571284e-01 -4.875290e-01 -2.399035e-01 1.648976e+00 3.253223e+00 8.254075e-01 -2.502634e-01 -2.620615e-03
<VARIANCE> 16
 2.148908e+03 5.520425e+01 4.899379e+01 1.906345e+00 3.697827e+00 4.564435e-01 9.550089e+01 7.145953e+01 2.637040e+00 7.134282e+00 5.902764e-01 5.295385e+02 3.366673e+02 1.224316e+01 2.710316e+01 2.125328e+00
<GCONST> 7.603545e+01
<TRANSP> 5
 0.000000e+00 1.000000e+00 0.000000e+00 0.000000e+00 0.000000e+00
 0.000000e+00 4.937424e-01 5.062576e-01 0.000000e+00 0.000000e+00
 0.000000e+00 0.000000e+00 7.595286e-01 2.404713e-01 0.000000e+00
 0.000000e+00 0.000000e+00 0.000000e+00 4.292074e-01 5.707926e-01
 0.000000e+00 0.000000e+00 0.000000e+00 0.000000e+00 0.000000e+00
<ENDHMM>
~h "bg_dark_0_4"
<BEGINHMM>
<NUMSTATES> 5
<STATE> 2
<MEAN> 16
 9.804263e+01 5.184745e+00 5.829377e+00 1.340150e+00 1.642553e+00 4.131371e-01 1.643338e-01 1.480383e-01 2.839306e-02 5.248839e-02 3.360549e-03 7.622143e-01 6.068430e-01 1.235724e-01 1.557301e-01 4.338246e-02
<VARIANCE> 16
 1.333342e+03 3.262130e+01 3.286872e+01 9.850858e-01 1.789954e+00 9.083465e-02 3.409007e+01 4.775153e+01 7.773306e-01 1.970557e+00 1.117751e-01 9.269453e+01 1.316269e+02 2.065554e+00 5.606526e+00 3.020342e-01
<GCONST> 5.803899e+01
<STATE> 3
<MEAN> 16
 1.696719e+02 1.583449e+01 2.026135e+01 4.665739e+00 5.698959e+00 2.116645e+00 2.038099e+00 2.675210e+00 4.271278e-01 3.579544e-01 1.477811e-01 2.379441e-02 1.205562e-01 -1.826641e-01 -1.750433e-01 -1.127956e-01
<VARIANCE> 16
 5.708313e+03 1.581457e+02 3.033445e+02 7.291417e+00 1.193683e+01 2.679957e+00 2.662530e+02 6.836643e+02 1.148467e+01 2.148227e+01 3.316218e+00 6.413690e+02 1.918902e+03 2.874050e+01 6.019674e+01 7.326698e+00
<GCONST> 9.657578e+01
<STATE> 4
<MEAN> 16
 1.038514e+02 1.667607e+01 8.302494e+00 2.665872e+00 2.389245e+00 5.356829e-01 -1.067080e+00 -2.809958e+00 -2.348755e-01 -3.419172e-01 -1.491407e-01 -1.167809e+00 -2.641805e+00 2.989784e-02 -1.563336e-01 2.879175e-02
<VARIANCE> 16
 1.951526e+03 3.658666e+02 6.534106e+01 3.804149e+00 2.810551e+00 1.836588e-01 1.911146e+02 1.563109e+02 2.653098e+00 3.967149e+00 2.924896e-01 5.201880e+02 6.057021e+02 7.665382e+00 1.576144e+01 7.989706e-01
<GCONST> 7.639868e+01
<TRANSP> 5
 0.000000e+00 1.000000e+00 0.000000e+00 0.000000e+00 0.000000e+00
 0.000000e+00 8.653913e-01 1.346087e-01 0.000000e+00 0.000000e+00
 0.000000e+00 0.000000e+00 6.901460e-01 3.098541e-01 0.000000e+00
 0.000000e+00 0.000000e+00 0.000000e+00 6.690770e-01 3.309229e-01
 0.000000e+00 0.000000e+00 0.000000e+00 0.000000e+00 0.000000e+00
<ENDHMM>
~h "bg_dark_0_5"
<BEGINHMM>
<NUMSTATES> 5
<STATE> 2
<MEAN> 16
 1.575882e+02 1.261275e+01 1.559814e+01 3.219686e+00 3.509945e+00 8.974552e-01 1.249658e+00 3.605481e+00 3.559556e-01 4.154159e-01 1.295097e-01 2.046273e+00 5.223701e+00 3.298115e-01 5.007535e-01 1.858297e-01
<VARIANCE> 16
 4.429878e+03 1.510024e+02 1.879460e+02 3.385177e+00 3.692058e+00 6.087557e-01 1.599574e+02 3.219103e+02 3.188028e+00 4.340629e+00 5.715212e-01 3.839415e+02 8.849362e+02 8.033017e+00 9.539309e+00 1.257432e+00
<GCONST> 8.030607e+01
<STATE> 3
<MEAN> 16
 1.321637e+02 1.748709e+01 1.337386e+01 5.647803e+00 5.736874e+00 2.173558e+00 3.557608e-03 -2.062083e+00 5.379147e-02 -2.508195e-02 6.559597e-02 -1.549797e+00 -3.858748e+00 -2.611962e-01 -2.632856e-01 -1.319721e-01
<VARIANCE> 16
 1.888305e+03 2.494955e+02 1.629933e+02 1.337385e+01 1.221319e+01 2.711042e+00 2.756834e+02 3.483107e+02 1.554497e+01 2.150360e+01 3.530268e+00 7.528708e+02 1.028197e+03 4.219624e+01 6.465688e+01 8.852484e+00
<GCONST> 9.585303e+01
<STATE> 4
<MEAN> 16
 8.722704e+01 6.844279e+00 5.994135e+00 1.572240e+00 1.594311e+00 5.124402e-01 -9.169935e-01 -3.566255e-01 -1.459640e-01 -1.250206e-01 -8.204047e-03 5.304416e-01 1.991347e+00 8.117253e-02 1.238851e-01 8.288578e-02
<VARIANCE> 16
 1.299092e+03 6.828068e+01 4.222816e+01 2.654574e+00 3.673080e+00 6.021413e-01 5.969971e+01 7.504989e+01 1.711472e+00 2.083015e+00 2.147673e-01 1.831938e+02 2.923428e+02 4.881042e+00 5.990219e+00 7.605271e-01
<GCONST> 6.844289e+01
<TRANSP> 5
 0.000000e+00 1.000000e+00 0.000000e+00 0.000000e+00 0.000000e+00
 0.000000e+00 5.666555e-01 4.333445e-01 0.000000e+00 0.000000e+00
 0.000000e+00 0.000000e+00 7.735153e-01 2.264846e-01 0.000000e+00
 0.000000e+00 0.000000e+00 0.000000e+00 8.225872e-01 1.774128e-01
 0.000000e+00 0.000000e+00 0.000000e+00 0.000000e+00 0.000000e+00
<ENDHMM>
~h "bg_red_0"
<BEGINHMM>
<NUMSTATES> 5
<STATE> 2
<MEAN> 16
 4.180090e+02 1.008625e+01 6.770894e+00 4.077478e+00 2.951476e+00 1.950937e+00 8.703803e-01 6.469830e-01 2.424255e-01 -7.940387e-02 -8.936755e-03 5.240921e-01 8.722609e-01 4.457785e-01 8.342777e-02 2.625973e-02
<VARIANCE> 16
 2.302286e+03 9.740223e+01 4.037339e+01 1.186944e+01 5.433388e+00 4.030240e+00 1.070538e+02 6.170198e+01 1.620079e+01 6.708632e+00 3.270283e+00 2.124232e+02 1.543716e+02 3.054172e+01 1.715539e+01 6.210865e+00
<GCONST> 8.413969e+01
<STATE> 3
<MEAN> 16
 4.377309e+02 3.053136e+01 3.600508e+00 8.979126e+00 1.239732e+00 7.140969e-01 -1.889960e+00 -1.410790e+00 -8.003871e-01 -6.231527e-02 -9.238569e-03 -5.045174e-01 -9.374175e-01 -7.421212e-01 -1.084968e-02 1.022973e-01
<VARIANCE> 16
 2.732945e+03 2.444039e+03 7.066639e+00 1.620818e+02 8.729215e-01 4.838751e-01 4.331053e+02 3.380923e+01 1.132561e+01 1.797664e+00 6.063511e-01 5.669078e+02 1.530273e+02 1.751082e+01 6.334545e+00 1.607602e+00
<GCONST> 7.996158e+01
<STATE> 4
<MEAN> 16
 3.510423e+02 2.098080e+00 1.967385e+00 1.026109e+00 1.062297e+00 3.482497e-01 -9.643936e-02 -8.201933e-02 -3.143206e-02 6.579310e-02 -5.084796e-03 -1.504064e-01 -1.444455e-01 -2.797098e-02 4.471212e-02 -1.309964e-02
<VARIANCE> 16
 8.801941e+02 3.137703e+00 2.686253e+00 3.571050e-01 4.985667e-01 1.127106e-01 5.295998e+00 5.813594e+00 5.944704e-01 5.467833e-01 4.268190e-02 1.677909e+01 1.765272e+01 1.782275e+00 1.399924e+00 1.691226e-01
<GCONST> 3.838673e+01
<TRANSP> 5
 0.000000e+00 1.000000e+00 0.000000e+00 0.000000e+00 0.000000e+00
 0.000000e+00 8.029885e-01 1.970115e-01 0.000000e+00 0.000000e+00
 0.000000e+00 0.000000e+00 5.814063e-01 4.185937e-01 0.000000e+00
 0.000000e+00 0.000000e+00 0.000000e+00 9.115328e-01 8.846717e-02
 0.000000e+00 0.000000e+00 0.000000e+00 0.000000e+00 0.000000e+00
<ENDHMM>
~h "bg_board"
<BEGINHMM>
<NUMSTATES> 5
<STATE> 2
<MEAN> 16
 1.688713e+02 1.664888e+01 1.037691e+01 4.809633e+00 2.534479e+00 8.270181e-01 1.103514e+00 3.352920e-01 2.035264e-01 -3.785550e-01 -3.642250e-01 2.589330e+00 -3.980857e-01 1.929651e-01 4.052594e-04 -2.461328e-01
<VARIANCE> 16
 2.102983e+03 2.362137e+02 7.249339e+01 7.525483e+00 1.897858e+00 2.986601e-01 3.510215e+02 1.145418e+02 9.421445e+00 4.115261e+00 1.988646e+00 7.407327e+02 3.044537e+02 2.031524e+01 1.117240e+01 5.234780e+00
<GCONST> 8.260918e+01
<STATE> 3
<MEAN> 16
 2.016897e+02 2.609898e+01 1.629981e+01 7.037849e+00 4.581717e+00 1.568542e+00 -2.100657e+00 -1.439936e+00 -3.889692e-01 2.229488e-01 1.120036e-01 -7.594236e+00 -2.914316e+00 -1.076486e+00 -7.271594e-02 2.855682e-01
<VARIANCE> 16
 3.984606e+03 5.174246e+02 2.308918e+02 1.831995e+01 8.640647e+00 1.759763e+00 4.272243e+02 3.919636e+02 2.707133e+01 1.226618e+01 2.759717e+00 1.374061e+03 1.069175e+03 7.252147e+01 2.985268e+01 9.225837e+00
<GCONST> 9.796795e+01
<STATE> 4
<MEAN> 16
 1.899755e+02 1.599640e+01 5.926534e+00 3.819371e+00 2.150782e+00 8.924500e-01 8.418889e-01 -3.978871e-01 -1.671393e-02 -5.458319e-02 4.945150e-02 3.534006e+00 2.560504e+00 3.941853e-01 3.217351e-01 1.336666e-01
<VARIANCE> 16
 4.356106e+03 2.989124e+02 2.149648e+01 6.362802e+00 1.918883e+00 5.902641e-01 1.051475e+02 2.963798e+01 2.613724e+00 2.277539e+00 5.471968e-01 3.143587e+02 1.521101e+02 9.657333e+00 8.001640e+00 1.567815e+00
<GCONST> 7.332596e+01
<TRANSP> 5
 0.000000e+00 1.000000e+00 0.000000e+00 0.000000e+00 0.000000e+00
 0.000000e+00 7.651249e-01 2.348751e-01 0.000000e+00 0.000000e+00
 0.000000e+00 0.000000e+00 4.749807e-01 5.250193e-01 0.000000e+00
 0.000000e+00 0.000000e+00 0.000000e+00 6.308948e-01 3.691052e-01
 0.000000e+00 0.000000e+00 0.000000e+00 0.000000e+00 0.000000e+00
<ENDHMM>
~h "fp_key_0"
<BEGINHMM>
<NUMSTATES> 5
<STATE> 2
<MEAN> 16
 2.168966e+02 6.146128e+01 6.515440e+00 1.199434e+01 1.984579e+00 7.409183e-01 7.860190e+00 5.937844e-01 1.537868e+00 1.631319e-01 1.917591e-01 1.013735e+00 -3.973782e-03 9.138076e-01 1.886801e-02 1.542081e-01
<VARIANCE> 16
 2.163783e+04 4.017350e+03 4.883701e+01 1.256335e+02 2.730721e+00 6.378209e-01 3.623212e+02 6.257414e+01 2.367130e+01 3.018484e+00 4.018576e-01 4.252494e+02 1.861541e+02 4.236190e+01 7.131358e+00 6.830869e-01
<GCONST> 8.695844e+01
<STATE> 3
<MEAN> 16
 2.198378e+02 5.605767e+01 2.439552e+01 1.380517e+01 8.291651e+00 3.729327e+00 1.620197e-01 3.573337e-01 3.258363e-01 3.814942e-01 1.496516e-01 -1.288195e+00 -1.756787e+00 -6.178115e-01 -7.261074e-01 -4.507984e-01
<VARIANCE> 16
 2.178943e+04 4.112054e+03 2.132851e+03 1.608124e+02 1.124952e+02 1.606661e+01 2.683163e+03 3.835924e+03 1.524661e+02 1.094849e+02 1.759348e+01 5.707359e+03 1.196030e+04 3.476885e+02 2.251761e+02 3.879236e+01
<GCONST> 1.296644e+02
<STATE> 4
<MEAN> 16
 1.944468e+02 3.394135e+01 4.083681e+00 8.104959e+00 1.808718e+00 8.308202e-01 -4.260474e-01 -1.134841e+00 -2.210483e-01 -6.678276e-01 -2.734656e-01 8.702450e-01 2.406579e+00 2.265547e-01 6.969495e-01 4.040530e-01
<VARIANCE> 16
 2.676118e+04 2.808827e+03 3.212898e+01 1.246938e+02 2.442102e+00 8.460132e-01 1.111917e+02 5.104486e+01 6.214559e+00 6.814211e+00 8.811431e-01 3.133646e+02 6.363785e+02 1.703000e+01 4.298452e+01 3.989255e+00
<GCONST> 8.900845e+01
<TRANSP> 5
 0.000000e+00 1.000000e+00 0.000000e+00 0.000000e+00 0.000000e+00
 0.000000e+00 4.392344e-01 5.607656e-01 0.000000e+00 0.000000e+00
 0.000000e+00 0.000000e+00 5.511496e-01 4.488504e-01 0.000000e+00
 0.000000e+00 0.000000e+00 0.000000e+00 1.208054e-01 8.791946e-01
 0.000000e+00 0.000000e+00 0.000000e+00 0.000000e+00 0.000000e+00
<ENDHMM>
~h "fp_key_1"
<BEGINHMM>
<NUMSTATES> 5
<STATE> 2
<MEAN> 16
 1.442769e+02 2.151088e+01 4.463415e+00 5.173373e+00 2.284281e+00 9.709231e-01 3.534819e-01 1.257090e+00 1.872818e-01 6.224527e-01 1.914441e-01 -2.481579e-01 1.696162e+00 2.410557e-01 8.927425e-01 2.985588e-01
<VARIANCE> 16
 1.252102e+04 1.462539e+03 4.329749e+01 5.356704e+01 1.281763e+01 1.361900e+00 5.590727e+01 5.041143e+01 4.485232e+00 1.193536e+01 8.660569e-01 6.852749e+01 1.024294e+02 6.956514e+00 1.652004e+01 1.243423e+00
<GCONST> 8.233678e+01
<STATE> 3
<MEAN> 16
 3.128085e+02 5.656482e+01 6.416020e+01 1.610457e+01 2.166061e+01 6.573339e+00 3.011874e+00 1.864069e+00 9.273841e-01 6.747934e-01 4.340165e-01 3.682657e-01 -1.684819e+01 -7.922136e-01 -4.566057e+00 -1.113476e+00
<VARIANCE> 16
 3.008757e+04 3.180091e+03 5.199051e+03 1.905387e+02 3.921998e+02 3.432888e+01 4.453394e+03 1.297328e+04 2.754795e+02 7.072306e+02 4.532998e+01 8.036609e+03 3.881775e+04 4.771776e+02 1.899845e+03 9.376692e+01
<GCONST> 1.427790e+02
<STATE> 4
<MEAN> 16
 4.149246e+02 1.100758e+02 8.325271e+00 2.137868e+01 2.560144e+00 1.265965e+00 3.464873e+00 -2.173785e+00 6.525099e-02 -8.928605e-01 -4.624506e-01 -8.813786e-01 1.361376e+01 6.335152e-01 3.274969e+00 5.977542e-01
<VARIANCE> 16
 4.553257e+04 5.930500e+03 9.476010e+01 1.926165e+02 8.517880e+00 1.841715e+00 1.369715e+03 1.872864e+02 5.202141e+01 1.299410e+01 2.086008e+00 3.242574e+03 2.387054e+03 1.744168e+02 1.525354e+02 1.404903e+01
<GCONST> 1.097847e+02
<TRANSP> 5
 0.000000e+00 1.000000e+00 0.000000e+00 0.000000e+00 0.000000e+00
 0.000000e+00 6.514052e-01 3.485948e-01 0.000000e+00 0.000000e+00
 0.000000e+00 0.000000e+00 6.315250e-01 3.684750e-01 0.000000e+00
 0.000000e+00 0.000000e+00 0.000000e+00 6.738269e-01 3.261732e-01
 0.000000e+00 0.000000e+00 0.000000e+00 0.000000e+00 0.000000e+00
<ENDHMM>
~h "fp_key_2"
<BEGINHMM>
<NUMSTATES> 5
<STATE> 2
<MEAN> 16
 2.108879e+02 3.385443e+01 4.049134e+00 8.536327e+00 2.347875e+00 1.303072e+00 -1.339867e+00 -4.160118e-01 2.051740e-01 1.490141e-01 1.156229e-01 9.356117e-02 -1.799388e-01 -2.280430e-01 3.668675e-01 3.163478e-01
<VARIANCE> 16
 2.439962e+04 2.940414e+03 1.244813e+01 1.083001e+02 1.006115e+01 2.227391e+00 2.098045e+02 3.732776e+01 6.697302e+00 2.990928e+00 1.710147e+00 2.345849e+02 1.074796e+02 2.057148e+01 6.678430e+00 3.737721e+00
<GCONST> 8.668681e+01
<STATE> 3
<MEAN> 16
 3.616064e+02 8.344151e+01 7.116613e+01 2.300948e+01 2.332483e+01 8.285776e+00 8.106523e+00 7.950797e+00 1.368441e+00 2.399138e+00 1.122374e+00 7.995600e+00 -5.337134e+00 8.086330e-01 -2.009658e+00 -2.061396e-01
<VARIANCE> 16
 2.629243e+04 4.642693e+03 4.885395e+03 2.657518e+02 3.087863e+02 4.784626e+01 5.392741e+03 9.417042e+03 3.545706e+02 6.133963e+02 7.707608e+01 1.153584e+04 2.742503e+04 7.917627e+02 1.820541e+03 2.054309e+02
<GCONST> 1.451598e+02
<STATE> 4
<MEAN> 16
 3.363450e+02 8.188930e+01 1.876586e+01 1.586457e+01 7.880786e+00 3.464258e+00 -9.130478e-02 -1.141758e+01 -3.382118e-01 -2.717955e+00 -1.450318e+00 -2.492981e+01 5.127605e+00 -2.601732e+00 2.995899e+00 -1.006388e+00
<VARIANCE> 16
 3.166786e+04 5.064161e+03 6.218345e+02 1.510785e+02 9.533356e+01 1.457334e+01 1.843373e+03 8.490518e+02 4.460462e+01 7.407619e+01 1.040343e+01 5.837134e+03 7.794855e+03 2.426978e+02 4.446368e+02 4.378113e+01
<GCONST> 1.246961e+02
<TRANSP> 5
 0.000000e+00 1.000000e+00 0.000000e+00 0.000000e+00 0.000000e+00
 0.000000e+00 6.640090e-01 3.359910e-01 0.000000e+00 0.000000e+00
 0.000000e+00 0.000000e+00 6.810917e-01 3.189083e-01 0.000000e+00
 0.000000e+00 0.000000e+00 0.000000e+00 6.295321e-02 9.370468e-01
 0.000000e+00 0.000000e+00 0.000000e+00 0.000000e+00 0.000000e+00
<ENDHMM>
~h "fp_key_3"
<BEGINHMM>
<NUMSTATES> 5
<STATE> 2
<MEAN> 16
 4.116784e+02 8.874606e+01 1.329029e+01 1.802571e+01 5.157653e+00 2.740862e+00 -7.743586e+00 -7.046399e-01 -1.183009e+00 -7.275558e-01 -2.864438e-01 -1.750624e+00 5.974361e+00 -1.042083e+00 6.418682e-01 4.707041e-01
<VARIANCE> 16
 3.934337e+04 4.250369e+03 3.926287e+02 1.745467e+02 3.989969e+01 8.876438e+00 1.505318e+03 5.305299e+02 8.257030e+01 3.446505e+01 7.730036e+00 2.685900e+03 1.258037e+03 1.684391e+02 8.660772e+01 2.226350e+01
<GCONST> 1.166590e+02
<STATE> 3
<MEAN> 16
 3.819456e+02 5.305297e+01 4.729196e+01 1.164967e+01 1.482520e+01 4.882718e+00 -9.307083e+00 -4.771071e+00 -2.335191e+00 -1.635132e+00 -4.709892e-01 -1.124361e+00 -8.887794e+00 3.191304e-01 -1.245574e+00 -4.339024e-01
<VARIANCE> 16
 4.512537e+04 3.270338e+03 4.282583e+03 9.940449e+01 2.595033e+02 1.965806e+01 2.878618e+03 7.783878e+03 1.316714e+02 3.274283e+02 2.108685e+01 6.590145e+03 2.438680e+04 3.210046e+02 1.038279e+03 5.657316e+01
<GCONST> 1.360072e+02
<STATE> 4
<MEAN> 16
 2.267207e+02 2.226582e+01 5.004215e+00 4.879964e+00 2.155354e+00 9.702295e-01 -6.790711e-01 -2.156156e-01 6.087080e-03 -1.756954e-01 -2.460482e-01 2.635768e+00 6.651695e+00 8.540810e-01 1.291375e+00 3.997860e-01
<VARIANCE> 16
 1.740795e+04 1.708066e+03 2.389656e+01 4.983611e+01 3.170507e+00 1.469886e+00 6.887979e+01 4.771437e+01 5.119928e+00 3.754650e+00 1.416442e+00 6.516377e+02 7.140299e+02 2.510378e+01 1.989793e+01 4.232627e+00
<GCONST> 8.734414e+01
<TRANSP> 5
 0.000000e+00 1.000000e+00 0.000000e+00 0.000000e+00 0.000000e+00
 0.000000e+00 4.535542e-01 5.464458e-01 0.000000e+00 0.000000e+00
 0.000000e+00 0.000000e+00 4.899093e-01 5.100908e-01 0.000000e+00
 0.000000e+00 0.000000e+00 0.000000e+00 6.334285e-01 3.665715e-01
 0.000000e+00 0.000000e+00 0.000000e+00 0.000000e+00 0.000000e+00
<ENDHMM>
~h "fp_key_4"
<BEGINHMM>
<NUMSTATES> 5
<STATE> 2
<MEAN> 16
 4.884602e+02 6.977563e+01 8.639146e+00 1.491197e+01 3.175307e+00 1.544172e+00 -2.541707e+00 1.118970e+00 2.230473e-01 6.307219e-01 3.298483e-01 1.287408e+00 1.278225e+00 5.567026e-02 7.909721e-01 4.069353e-01
<VARIANCE> 16
 4.447153e+04 3.213369e+03 4.417359e+01 8.454686e+01 1.035998e+01 3.031934e+00 6.960547e+02 6.455077e+01 2.290759e+01 1.005564e+01 1.658097e+00 7.738488e+02 1.846995e+02 3.189557e+01 2.225456e+01 3.517117e+00
<GCONST> 9.620721e+01
<STATE> 3
<MEAN> 16
 4.118384e+02 6.247799e+01 4.616297e+01 1.452669e+01 1.303411e+01 6.790364e+00 -6.091618e+00 3.375072e+00 -2.134044e+00 1.041707e-02 -4.586540e-02 -1.868160e+01 -1.508208e+01 -2.955856e+00 -4.030028e+00 -1.849110e+00
<VARIANCE> 16
 3.367805e+04 3.673344e+03 3.107129e+03 1.776217e+02 1.361075e+02 4.641343e+01 4.669213e+03 6.973249e+03 1.586091e+02 2.531950e+02 6.859857e+01 8.379543e+03 1.711388e+04 2.787849e+02 5.787272e+02 1.732086e+02
<GCONST> 1.380660e+02
<STATE> 4
<MEAN> 16
 2.732075e+02 1.276688e+01 1.083725e+01 3.716683e+00 2.720462e+00 1.439634e+00 -6.427342e+00 -4.418465e+00 -9.748034e-01 -1.302013e+00 -5.907094e-01 1.996797e+01 1.684866e+01 2.838417e+00 3.414781e+00 1.676037e+00
<VARIANCE> 16
 5.981848e+03 4.959339e+02 2.146162e+02 1.221379e+01 9.006289e+00 2.309033e+00 3.053304e+02 2.773253e+02 1.062510e+01 1.933381e+01 2.657267e+00 2.665524e+03 4.022549e+03 5.810261e+01 1.660284e+02 2.430302e+01
<GCONST> 1.014169e+02
<TRANSP> 5
 0.000000e+00 1.000000e+00 0.000000e+00 0.000000e+00 0.000000e+00
 0.000000e+00 6.587786e-01 3.412214e-01 0.000000e+00 0.000000e+00
 0.000000e+00 0.000000e+00 5.480788e-01 4.519212e-01 0.000000e+00
 0.000000e+00 0.000000e+00 0.000000e+00 3.373689e-01 6.626312e-01
 0.000000e+00 0.000000e+00 0.000000e+00 0.000000e+00 0.000000e+00
<ENDHMM>
~h "fp_key_5"
<BEGINHMM>
<NUMSTATES> 5
<STATE> 2
<MEAN> 16
 3.028564e+02 7.408504e+00 1.059449e+01 1.840747e+00 2.226440e+00 9.917426e-01 -6.285860e+00 -2.608493e+00 -1.819836e+00 -8.579831e-01 -7.585262e-01 4.820329e+00 1.866391e+00 -1.846139e-01 6.720144e-01 -1.147296e-01
<VARIANCE> 16
 9.643581e+03 1.992586e+02 4.700981e+02 6.714384e+00 9.215263e+00 6.268026e+00 7.067672e+02 6.062877e+02 1.472442e+01 1.173343e+01 9.212452e+00 1.600129e+03 1.564379e+03 3.040216e+01 4.701719e+01 2.588431e+01
<GCONST> 1.015805e+02
<STATE> 3
<MEAN> 16
 3.057923e+02 5.216945e+00 1.155093e+01 1.142128e+00 2.284854e+00 4.006060e-01 1.521580e-01 2.209413e+00 -1.109722e-02 2.481574e-01 -4.403296e-02 9.551319e-01 5.222628e-01 5.125548e-01 2.619438e-01 2.165368e-01
<VARIANCE> 16
 4.059917e+03 4.144212e+01 4.328430e+02 6.643057e-01 1.061056e+01 8.200273e-02 4.829417e+01 4.307859e+02 7.060793e-01 1.115415e+01 1.343742e-01 2.114877e+02 1.023033e+03 5.275964e+00 2.337742e+01 7.144958e-01
<GCONST> 7.372449e+01
<STATE> 4
<MEAN> 16
 3.613190e+02 2.703873e+00 4.898859e+00 7.506869e-01 1.108621e+00 2.648250e-01 -6.174985e-02 2.078958e-01 -5.492802e-02 2.372532e-02 -1.556236e-03 2.098189e-02 3.114576e-01 2.756575e-02 1.014651e-02 1.955152e-02
<VARIANCE> 16
 3.959805e+03 9.584229e+00 8.880450e+01 1.999573e-01 3.155306e+00 1.887516e-02 1.310303e+01 8.902357e+01 2.671221e-01 3.267115e+00 2.528012e-02 4.227403e+01 2.484067e+02 7.053937e-01 8.488236e+00 7.419506e-02
<GCONST> 5.170179e+01
<TRANSP> 5
 0.000000e+00 1.000000e+00 0.000000e+00 0.000000e+00 0.000000e+00
 0.000000e+00 7.149068e-02 9.285094e-01 0.000000e+00 0.000000e+00
 0.000000e+00 0.000000e+00 6.630157e-01 3.369843e-01 0.000000e+00
 0.000000e+00 0.000000e+00 0.000000e+00 8.654681e-01 1.345319e-01
 0.000000e+00 0.000000e+00 0.000000e+00 0.000000e+00 0.000000e+00
<ENDHMM>
~h "bg_red_0_0"
<BEGINHMM>
<NUMSTATES> 5
<STATE> 2
<MEAN> 16
 4.157210e+02 7.963560e+00 1.118621e+01 2.904142e+00 5.581331e+00 1.898838e+00 4.338339e+00 7.960109e+00 1.124469e+00 3.351585e+00 6.884354e-01 4.307105e+00 8.163312e+00 1.149486e+00 2.917770e+00 2.692149e-01
<VARIANCE> 16
 3.519736e+03 4.772509e+01 4.196426e+02 3.457975e+00 4.385531e+01 3.092784e+00 6.911029e+01 4.530907e+02 2.004895e+00 4.247490e+01 3.128438e+00 1.119484e+02 5.258756e+02 4.331056e+00 4.078445e+01 6.678623e+00
<GCONST> 8.762065e+01
<STATE> 3
<MEAN> 16
 5.031647e+02 3.565729e+01 6.210077e+00 9.592581e+00 1.489941e+00 1.094744e+00 -1.528912e+00 -5.078265e+00 5.187708e-02 -2.410323e+00 -1.689432e-01 -5.803086e+00 -6.706647e+00 -1.176420e+00 -3.099071e+00 -2.625918e-01
<VARIANCE> 16
 1.959936e+04 2.490188e+03 2.446206e+01 9.567576e+01 1.255060e+00 8.097538e-01 4.126710e+02 3.415639e+02 2.449863e+01 3.348182e+01 1.043128e+00 3.193612e+02 1.732599e+03 3.717987e+01 1.755111e+02 4.345870e+00
<GCONST> 9.696807e+01
<STATE> 4
<MEAN> 16
 4.494670e+02 3.341555e+00 1.876817e+00 1.413978e+00 1.209349e+00 7.162617e-01 -5.004623e-01 -3.633571e-01 -4.306401e-01 -1.465017e-01 -1.190438e-01 2.115129e+00 1.183941e+00 1.508136e-01 5.636631e-01 1.762538e-02
<VARIANCE> 16
 1.967736e+04 7.626331e+00 2.293918e+00 1.309442e+00 5.234404e-01 7.346582e-01 1.605141e+01 6.022639e+00 3.738657e+00 7.991553e-01 1.903691e-01 3.275695e+01 2.833341e+01 4.833396e+00 3.421180e+00 7.455366e-01
<GCONST> 5.482114e+01
<TRANSP> 5
 0.000000e+00 1.000000e+00 0.000000e+00 0.000000e+00 0.000000e+00
 0.000000e+00 2.933421e-01 7.066579e-01 0.000000e+00 0.000000e+00
 0.000000e+00 0.000000e+00 5.049812e-01 4.950188e-01 0.000000e+00
 0.000000e+00 0.000000e+00 0.000000e+00 6.135261e-01 3.864739e-01
 0.000000e+00 0.000000e+00 0.000000e+00 0.000000e+00 0.000000e+00
<ENDHMM>
~h "bg_red_0_1"
<BEGINHMM>
<NUMSTATES> 5
<STATE> 2
<MEAN> 16
 3.913072e+02 7.250184e+00 5.121158e+00 2.159946e+00 1.422492e+00 3.916852e-01 2.744281e+00 2.936294e+00 4.557485e-01 1.808033e-02 -5.880557e-01 3.416288e+00 2.934969e+00 1.313985e+00 2.022916e-01 -5.071148e-01
<VARIANCE> 16
 6.231784e+03 2.642204e+01 3.567519e+01 2.704453e+00 7.535405e-01 6.369478e-02 2.827001e+01 3.614035e+01 2.824120e+00 1.096801e+00 1.412104e+00 6.629213e+01 4.843909e+01 9.539848e+00 1.991344e+00 1.776738e+00
<GCONST> 6.294871e+01
<STATE> 3
<MEAN> 16
 3.832877e+02 6.200799e+00 3.600403e+00 2.149189e+00 1.506025e+00 6.991282e-01 -1.049384e+00 -1.520754e+00 -1.075682e-02 8.353317e-02 3.074426e-01 -3.793665e+00 -4.457048e+00 -4.665053e-01 6.545281e-02 8.954985e-01
<VARIANCE> 16
 4.581235e+03 1.838499e+01 1.491642e+01 1.767905e+00 2.183249e+00 9.862757e-01 1.590881e+01 1.145315e+01 1.933974e+00 1.884325e+00 1.092034e+00 6.307118e+01 8.017998e+01 6.452484e+00 2.989653e+00 2.389592e+00
<GCONST> 6.373214e+01
<STATE> 4
<MEAN> 16
 4.121982e+02 3.728513e+01 3.397230e+00 8.314779e+00 2.187042e+00 1.418652e+00 6.852137e+00 -7.711356e-01 1.042378e+00 -1.578055e-02 -3.007744e-02 5.173000e-01 7.678260e-01 2.139516e-01 9.532723e-02 -1.676772e-01
<VARIANCE> 16
 8.696431e+03 3.411077e+03 9.217593e+00 1.003673e+02 4.116120e+00 2.728906e+00 3.254791e+02 1.288462e+01 1.193542e+01 2.417283e+00 1.329206e+00 4.738063e+02 2.555838e+01 2.839613e+01 5.811506e+00 4.878965e+00
<GCONST> 8.394111e+01
<TRANSP> 5
 0.000000e+00 1.000000e+00 0.000000e+00 0.000000e+00 0.000000e+00
 0.000000e+00 0.000000e+00 1.000000e+00 0.000000e+00 0.000000e+00
 0.000000e+00 0.000000e+00 0.000000e+00 1.000000e+00 0.000000e+00
 0.000000e+00 0.000000e+00 0.000000e+00 2.951103e-01 7.048897e-01
 0.000000e+00 0.000000e+00 0.000000e+00 0.000000e+00 0.000000e+00
<ENDHMM>
~h "bg_red_0_2"
<BEGINHMM>
<NUMSTATES> 5
<STATE> 2
<MEAN> 16
 3.622711e+02 1.799454e+01 4.991600e+00 5.824403e+00 1.854297e+00 7.698707e-01 -6.350218e+00 8.938848e-01 1.509323e-01 2.432695e-01 -3.713213e-02 -3.484957e+00 3.378594e-01 -4.745388e-01 4.572982e-02 -7.192930e-02
<VARIANCE> 16
 1.384221e+03 1.732894e+03 2.142534e+01 9.830889e+01 2.011777e+00 7.025455e-01 1.713475e+02 3.742190e+01 2.470353e+00 7.461038e-01 4.356369e-01 8.032622e+01 9.523718e+01 5.204917e+00 2.175180e+00 1.624919e+00
<GCONST> 7.249626e+01
<STATE> 3
<MEAN> 16
 3.437587e+02 4.683146e+00 3.213795e+00 2.268182e+00 8.469554e-01 3.866974e-01 -4.185110e+00 -1.091642e+00 -2.222712e+00 -8.410135e-01 -2.367910e-01 4.178312e+00 -8.957393e-01 -5.142652e-01 -1.112798e+00 -1.559140e-01
<VARIANCE> 16
 7.216008e+02 4.981807e+01 6.416640e+00 1.177111e+01 2.502092e-01 3.736787e-02 1.670271e+02 7.184987e+00 1.771949e+01 2.000033e+00 1.790410e-01 7.851615e+01 4.704396e+01 2.190918e+01 3.369371e+00 4.750986e-01
<GCONST> 6.025765e+01
<STATE> 4
<MEAN> 16
 3.362325e+02 3.387779e+00 2.097784e+00 1.201571e+00 7.237865e-01 3.013723e-01 7.609317e-02 -4.777733e-03 -1.143299e-02 -1.493793e-02 -1.103058e-02 -2.176053e-02 1.789332e-01 8.314984e-02 1.038192e-01 1.684338e-02
<VARIANCE> 16
 4.950009e+02 7.076604e+00 3.096615e+00 6.095728e-01 2.795820e-01 3.263559e-02 6.829074e+00 5.179720e+00 4.033729e-01 3.647434e-01 3.093706e-02 2.074830e+01 1.487073e+01 1.390670e+00 1.247225e+00 8.074751e-02
<GCONST> 3.544571e+01
<TRANSP> 5
 0.000000e+00 1.000000e+00 0.000000e+00 0.000000e+00 0.000000e+00
 0.000000e+00 2.124520e-01 7.875479e-01 0.000000e+00 0.000000e+00
 0.000000e+00 0.000000e+00 1.310127e-01 8.689873e-01 0.000000e+00
 0.000000e+00 0.000000e+00 0.000000e+00 8.946094e-01 1.053906e-01
 0.000000e+00 0.000000e+00 0.000000e+00 0.000000e+00 0.000000e+00
<ENDHMM>
~h "bg_red_0_3"
<BEGINHMM>
<NUMSTATES> 5
<STATE> 2
<MEAN> 16
 3.163624e+02 3.413306e+00 1.419137e+00 1.278041e+00 5.427460e-01 2.585682e-01 -3.510034e-01 -9.207474e-01 1.247027e-01 -1.402476e-01 2.641486e-02 -2.121175e-01 -1.585361e+00 2.373262e-01 -1.216242e-01 6.777982e-02
<VARIANCE> 16
 3.984734e+02 9.828190e+00 8.605710e-01 1.287641e+00 1.348722e-01 2.154824e-02 3.402260e+00 3.423099e+00 5.326843e-01 2.519333e-01 3.842824e-02 7.544596e+00 1.001077e+01 1.368900e+00 8.428062e-01 7.491642e-02
<GCONST> 3.100440e+01
<STATE> 3
<MEAN> 16
 3.117784e+02 4.444276e+00 2.139327e+00 1.463398e+00 6.445833e-01 2.968569e-01 1.030973e+00 7.201963e-01 1.853594e-01 1.018368e-01 3.828853e-02 1.381970e+00 1.640942e+00 6.066099e-02 2.420811e-01 1.187270e-02
<VARIANCE> 16
 4.694076e+02 1.124462e+01 3.441033e+00 1.758813e+00 3.429671e-01 3.169707e-02 5.911600e+00 3.218204e+00 4.574483e-01 2.364669e-01 4.807639e-02 1.115200e+01 6.290917e+00 1.047339e+00 4.667059e-01 1.156928e-01
<GCONST> 3.432099e+01
<STATE> 4
<MEAN> 16
 3.161957e+02 7.684542e+00 1.772658e+00 2.437528e+00 7.293932e-01 2.899520e-01 4.887075e-01 -2.374516e-01 5.569593e-02 -7.938867e-02 -3.532551e-02 -8.379105e-01 -5.524948e-01 -2.020228e-01 -2.078254e-01 -5.489567e-02
<VARIANCE> 16
 7.925553e+02 3.649666e+01 2.521986e+00 3.385456e+00 3.786160e-01 4.339301e-02 1.884445e+01 5.347373e+00 9.871859e-01 3.974422e-01 5.091940e-02 4.221573e+01 1.629163e+01 2.358983e+00 8.830667e-01 1.334342e-01
<GCONST> 4.366724e+01
<TRANSP> 5
 0.000000e+00 1.000000e+00 0.000000e+00 0.000000e+00 0.000000e+00
 0.000000e+00 1.139686e-30 1.000000e+00 0.000000e+00 0.000000e+00
 0.000000e+00 0.000000e+00 5.540980e-06 9.999945e-01 0.000000e+00
 0.000000e+00 0.000000e+00 0.000000e+00 4.151065e-01 5.848935e-01
 0.000000e+00 0.000000e+00 0.000000e+00 0.000000e+00 0.000000e+00
<ENDHMM>
~h "bg_red_0_4"
<BEGINHMM>
<NUMSTATES> 5
<STATE> 2
<MEAN> 16
 2.767067e+02 4.446482e+00 1.486679e+00 9.874057e-01 5.101102e-01 2.315328e-01 4.291904e-02 -4.368169e-02 2.820537e-02 1.839963e-02 5.018919e-03 -4.750261e-02 -2.477784e-02 5.398096e-02 4.310245e-02 8.303841e-03
<VARIANCE> 16
 1.208597e+03 1.224072e+01 1.568312e+00 7.389602e-01 2.876734e-01 9.430405e-03 7.714641e+00 2.745398e+00 4.432607e-01 2.637115e-01 1.550312e-02 2.132092e+01 7.859447e+00 1.022355e+00 6.583951e-01 4.857622e-02
<GCONST> 3.168654e+01
<STATE> 3
<MEAN> 16
 2.336442e+02 1.946223e+01 4.113539e+00 6.192379e+00 9.202080e-01 6.064433e-01 1.338859e+00 4.570959e-01 3.224338e-01 8.762705e-02 6.230516e-02 7.934796e-01 1.945968e-01 -2.420323e-01 2.224911e-03 6.324874e-03
<VARIANCE> 16
 2.422648e+03 2.175871e+02 1.464390e+01 1.706290e+01 3.806483e-01 1.410808e-01 2.594679e+02 2.241683e+01 1.012143e+01 4.162197e-01 1.414934e-01 6.059549e+02 5.622613e+01 1.916947e+01 9.320073e-01 3.235919e-01
<GCONST> 6.551975e+01
<STATE> 4
<MEAN> 16
 2.725026e+02 1.069774e+01 2.532009e+00 2.801263e+00 5.237865e-01 2.814585e-01 -7.390532e-01 -5.431231e-01 -4.824675e-01 -5.199202e-01 -2.586601e-01 -3.101698e+00 -6.013298e-01 1.131620e-01 -6.352323e-01 -2.715776e-01
<VARIANCE> 16
 2.431642e+03 1.305576e+02 6.297252e+00 6.835036e+00 1.044561e-01 1.839312e-02 5.224734e+01 6.361626e+00 1.869396e+00 5.727782e-01 1.404602e-01 2.003366e+02 3.371454e+01 6.107575e+00 1.542360e+00 2.156836e-01
<GCONST> 5.302021e+01
<TRANSP> 5
 0.000000e+00 1.000000e+00 0.000000e+00 0.000000e+00 0.000000e+00
 0.000000e+00 9.060598e-01 9.394016e-02 0.000000e+00 0.000000e+00
 0.000000e+00 0.000000e+00 7.711566e-01 2.288434e-01 0.000000e+00
 0.000000e+00 0.000000e+00 0.000000e+00 1.149843e-01 8.850157e-01
 0.000000e+00 0.000000e+00 0.000000e+00 0.000000e+00 0.000000e+00
<ENDHMM>
~h "bg_red_0_5"
<BEGINHMM>
<NUMSTATES> 5
<STATE> 2
<MEAN> 16
 2.879050e+02 1.768682e+01 2.534905e+00 5.278642e+00 6.233109e-01 3.010730e-01 1.273731e+00 7.309586e-03 5.178078e-01 2.672546e-02 1.985622e-02 8.205191e-01 -1.358771e-01 3.028912e-01 2.074889e-01 1.083688e-01
<VARIANCE> 16
 2.550079e+03 2.515736e+02 5.395881e+00 3.994607e+01 1.173347e-01 2.338397e-02 4.802684e+01 5.782665e+00 1.913483e+00 1.485449e-01 3.267195e-02 8.274282e+01 1.030057e+01 2.825854e+00 6.179022e-01 1.352875e-01
<GCONST> 4.850480e+01
<STATE> 3
<MEAN> 16
 3.071400e+02 3.878405e+01 6.438599e+00 1.154252e+01 2.084323e+00 1.395134e+00 -1.696624e+00 7.460468e-01 -3.283241e-01 3.400569e-01 1.418214e-01 -3.385096e+00 3.711186e-01 -1.018590e+00 6.546351e-02 -1.127741e-01
<VARIANCE> 16
 5.497375e+03 2.458319e+03 3.446912e+01 1.226095e+02 3.174178e+00 1.094960e+00 4.657797e+02 5.252224e+01 3.885598e+01 3.804939e+00 1.042072e+00 7.790672e+02 1.407957e+02 5.544082e+01 7.070427e+00 2.001769e+00
<GCONST> 8.883313e+01
<STATE> 4
<MEAN> 16
 3.056185e+02 4.685521e+00 2.718790e+00 1.836262e+00 1.104470e+00 5.517825e-01 -1.487083e+00 -1.289516e+00 -6.104199e-01 -2.703348e-01 -1.766921e-01 5.313138e+00 -1.303517e+00 1.558433e+00 -4.150738e-01 7.772072e-02
<VARIANCE> 16
 1.622136e+02 1.417594e+01 1.055743e+01 2.353873e+00 8.142023e-01 2.468602e-01 3.035358e+01 1.725825e+01 1.208183e+00 7.481288e-01 2.942918e-01 4.665622e+02 6.438925e+01 4.816155e+01 5.745244e+00 1.425488e+00
<GCONST> 5.997964e+01
<TRANSP> 5
 0.000000e+00 1.000000e+00 0.000000e+00 0.000000e+00 0.000000e+00
 0.000000e+00 6.942968e-01 3.057031e-01 0.000000e+00 0.000000e+00
 0.000000e+00 0.000000e+00 7.771311e-01 2.228689e-01 0.000000e+00
 0.000000e+00 0.000000e+00 0.000000e+00 5.591665e-01 4.408335e-01
 0.000000e+00 0.000000e+00 0.000000e+00 0.000000e+00 0.000000e+00
<ENDHMM>
~h "fp_screen"
<BEGINHMM>
<NUMSTATES> 5
<STATE> 2
<MEAN> 16
 2.749078e+02 1.283874e+01 2.393077e+01 3.613756e+00 6.946319e+00 1.537721e+00 8.352982e+00 1.439747e+01 1.772176e+00 4.017848e+00 1.021775e+00 7.586648e+00 1.302630e+01 1.552626e+00 3.555084e+00 9.853531e-01
<VARIANCE> 16
 3.766157e+04 7.475189e+02 6.589310e+02 3.493739e+01 3.725579e+01 6.209600e+00 7.881714e+02 7.791953e+02 3.384627e+01 5.228573e+01 6.595313e+00 8.756334e+02 1.022499e+03 3.345206e+01 9.095307e+01 7.171801e+00
<GCONST> 1.084357e+02
<STATE> 3
<MEAN> 16
 5.197199e+02 4.395159e+01 3.099252e+01 1.045994e+01 1.034205e+01 4.765679e+00 -8.492596e-01 -2.176904e+00 -3.055873e-01 -5.697300e-01 -4.390950e-01 -6.175169e+00 -1.630076e+01 -1.549921e+00 -3.913315e+00 -7.594660e-01
<VARIANCE> 16
 7.097558e+04 2.657667e+03 1.024378e+03 1.474453e+02 5.614277e+01 3.452276e+01 1.995213e+03 2.411663e+03 5.205748e+01 1.146208e+02 2.576156e+01 6.256312e+03 6.987396e+03 1.657124e+02 3.149488e+02 7.294293e+01
<GCONST> 1.280311e+02
<STATE> 4
<MEAN> 16
 3.105835e+02 6.804427e+00 8.506027e+00 1.810491e+00 2.623710e+00 5.417784e-01 -1.008062e-01 -1.689629e-01 -1.983736e-01 -3.051629e-01 -9.977810e-02 8.712798e-02 4.751032e+00 -2.846261e-02 5.563493e-01 -6.582716e-02
<VARIANCE> 16
 3.887586e+04 1.969121e+02 3.009702e+02 1.868580e+01 1.404961e+01 4.177772e-01 2.293512e+01 2.356004e+02 1.234389e+00 1.211772e+01 3.748944e-01 5.023675e+01 5.961382e+02 2.989869e+00 5.815448e+01 1.013125e+00
<GCONST> 8.145901e+01
<TRANSP> 5
 0.000000e+00 1.000000e+00 0.000000e+00 0.000000e+00 0.000000e+00
 0.000000e+00 3.186180e-01 6.813820e-01 0.000000e+00 0.000000e+00
 0.000000e+00 0.000000e+00 4.957319e-01 5.042681e-01 0.000000e+00
 0.000000e+00 0.000000e+00 0.000000e+00 6.815031e-01 3.184970e-01
 0.000000e+00 0.000000e+00 0.000000e+00 0.000000e+00 0.000000e+00
<ENDHMM>
~h "bg_board_0"
<BEGINHMM>
<NUMSTATES> 5
<STATE> 2
<MEAN> 16
 1.769643e+02 1.948374e+01 7.502583e+00 5.364556e+00 2.892365e+00 9.770533e-01 4.038949e-01 1.305286e+00 -4.248981e-02 1.934290e-02 -1.541280e-01 -1.606238e+00 1.513072e+00 -1.590636e-01 6.659893e-02 -2.158747e-01
<VARIANCE> 16
 2.376224e+03 4.509713e+02 3.175179e+01 9.037029e+00 2.398385e+00 2.832558e-01 2.988959e+02 5.216758e+01 1.191634e+01 3.747731e+00 9.051128e-01 7.721999e+02 1.293422e+02 2.066652e+01 7.877306e+00 2.154437e+00
<GCONST> 7.928904e+01
<STATE> 3
<MEAN> 16
 1.766007e+02 2.600539e+01 8.875025e+00 5.072403e+00 3.465088e+00 9.802901e-01 -8.126312e-01 -4.525513e-01 -4.276651e-01 -7.162599e-02 -2.139201e-01 -2.254051e+00 -1.849336e+00 -5.920551e-01 -3.783509e-01 -1.422079e-01
<VARIANCE> 16
 2.750268e+03 6.400369e+02 7.281509e+01 9.889166e+00 4.446774e+00 5.844846e-01 3.364935e+02 1.223904e+02 1.690625e+01 7.543161e+00 7.242209e-01 8.854340e+02 2.873817e+02 5.108532e+01 2.080150e+01 2.136812e+00
<GCONST> 8.664772e+01
<STATE> 4
<MEAN> 16
 1.514419e+02 1.566657e+01 6.830937e+00 3.514054e+00 1.821646e+00 5.608861e-01 -1.450809e-02 -2.187136e-02 -4.350740e-02 -1.908540e-01 -1.534255e-02 1.094900e+00 6.363640e-01 2.991871e-01 5.351810e-02 8.722953e-02
<VARIANCE> 16
 2.461560e+03 2.536828e+02 3.580118e+01 3.649393e+00 9.373505e-01 1.333303e-01 1.229695e+02 6.728876e+01 3.706705e+00 1.807396e+00 1.303215e-01 3.137991e+02 2.080409e+02 1.201152e+01 5.999412e+00 3.577304e-01
<GCONST> 6.876483e+01
<TRANSP> 5
 0.000000e+00 1.000000e+00 0.000000e+00 0.000000e+00 0.000000e+00
 0.000000e+00 2.314509e-01 7.685491e-01 0.000000e+00 0.000000e+00
 0.000000e+00 0.000000e+00 3.962243e-01 6.037756e-01 0.000000e+00
 0.000000e+00 0.000000e+00 0.000000e+00 7.950746e-01 2.049254e-01
 0.000000e+00 0.000000e+00 0.000000e+00 0.000000e+00 0.000000e+00
<ENDHMM>
~h "bg_board_1"
<BEGINHMM>
<NUMSTATES> 5
<STATE> 2
<MEAN> 16
 1.710199e+02 2.612197e+01 8.810819e+00 5.538450e+00 2.526464e+00 1.054243e+00 2.688249e+00 1.019158e+00 6.382801e-01 4.561710e-01 2.129855e-01 -4.759735e-02 4.347281e-01 1.218943e-01 5.073179e-01 1.426965e-01
<VARIANCE> 16
 5.572162e+03 4.881769e+02 5.531989e+01 8.469326e+00 2.006392e+00 5.252491e-01 2.172700e+02 7.085352e+01 8.922965e+00 3.209371e+00 7.063643e-01 3.586201e+02 1.474592e+02 1.937347e+01 7.910116e+00 1.462476e+00
<GCONST> 7.936112e+01
<STATE> 3
<MEAN> 16
 1.875152e+02 2.294169e+01 1.930013e+01 5.706773e+00 4.296857e+00 1.201505e+00 -3.933354e+00 6.173915e-01 -6.237859e-01 -2.410241e-01 -1.973130e-01 -2.541768e+00 -3.768947e+00 -8.391721e-01 -1.101514e+00 -5.211219e-01
<VARIANCE> 16
 5.057658e+03 6.310995e+02 3.987372e+02 1.385703e+01 3.505032e+01 8.343759e-01 4.402630e+02 7.204571e+02 1.735347e+01 5.666144e+01 9.733020e-01 1.044550e+03 2.059797e+03 5.247268e+01 1.570775e+02 2.293835e+00
<GCONST> 1.003350e+02
<STATE> 4
<MEAN> 16
 1.352255e+02 1.204842e+01 6.295213e+00 2.864201e+00 1.821446e+00 4.810366e-01 -2.094091e-01 -4.185874e-01 -4.914146e-02 -6.216736e-02 -2.112421e-02 3.137240e-01 2.743325e-01 9.039463e-02 8.239534e-02 5.762444e-02
<VARIANCE> 16
 3.079851e+03 1.585639e+02 2.938879e+01 3.520026e+00 1.355203e+00 9.355865e-02 1.182525e+02 4.465184e+01 2.146295e+00 1.693573e+00 1.143357e-01 3.242520e+02 1.457762e+02 5.832204e+00 4.947653e+00 3.714129e-01
<GCONST> 6.590784e+01
<TRANSP> 5
 0.000000e+00 1.000000e+00 0.000000e+00 0.000000e+00 0.000000e+00
 0.000000e+00 5.634367e-01 4.365632e-01 0.000000e+00 0.000000e+00
 0.000000e+00 0.000000e+00 3.896329e-01 6.103671e-01 0.000000e+00
 0.000000e+00 0.000000e+00 0.000000e+00 8.760934e-01 1.239065e-01
 0.000000e+00 0.000000e+00 0.000000e+00 0.000000e+00 0.000000e+00
<ENDHMM>
~h "bg_board_2"
<BEGINHMM>
<NUMSTATES> 5
<STATE> 2
<MEAN> 16
 1.307107e+02 1.477381e+01 6.805585e+00 4.149094e+00 1.788662e+00 6.195776e-01 7.849438e-01 3.888659e-01 8.335748e-02 4.568778e-02 1.361178e-02 4.489998e-01 7.796103e-01 8.705474e-02 1.127370e-01 9.134475e-03
<VARIANCE> 16
 2.480146e+03 2.497624e+02 2.764995e+01 7.286592e+00 1.190049e+00 1.797515e-01 1.316149e+02 4.024405e+01 4.153450e+00 1.324322e+00 2.008798e-01 3.206038e+02 1.152343e+02 9.999439e+00 3.366436e+00 5.694991e-01
<GCONST> 6.865128e+01
<STATE> 3
<MEAN> 16
 1.739371e+02 7.375827e+01 9.140643e+00 1.001488e+01 2.980425e+00 1.016106e+00 2.310552e+00 8.329707e-01 4.264003e-01 4.176209e-01 1.710292e-01 -7.077383e-01 4.262429e-01 1.583605e-01 2.065454e-01 1.160730e-01
<VARIANCE> 16
 1.681467e+03 3.108752e+03 7.910234e+01 3.334328e+01 3.601686e+00 6.797898e-01 4.880109e+02 8.150822e+01 1.067809e+01 4.547537e+00 7.893780e-01 1.189505e+03 1.668236e+02 2.722352e+01 1.142532e+01 1.779030e+00
<GCONST> 8.639998e+01
<STATE> 4
<MEAN> 16
 1.605914e+02 1.704980e+01 1.240187e+01 5.106997e+00 2.874330e+00 1.082046e+00 -2.638903e+00 -9.443253e-01 -3.632203e-01 -3.998041e-01 -1.350348e-01 -8.798233e-01 -1.849264e+00 -3.190080e-01 -4.892244e-01 -2.119954e-01
<VARIANCE> 16
 2.599556e+03 2.598688e+02 1.218254e+02 6.857779e+00 1.875875e+00 5.540153e-01 2.285591e+02 2.420626e+02 7.326439e+00 3.636591e+00 9.229086e-01 7.462274e+02 6.987121e+02 2.195631e+01 1.214583e+01 2.357820e+00
<GCONST> 8.332713e+01
<TRANSP> 5
 0.000000e+00 1.000000e+00 0.000000e+00 0.000000e+00 0.000000e+00
 0.000000e+00 7.619076e-01 2.380924e-01 0.000000e+00 0.000000e+00
 0.000000e+00 0.000000e+00 7.463431e-01 2.536569e-01 0.000000e+00
 0.000000e+00 0.000000e+00 0.000000e+00 7.124476e-01 2.875524e-01
 0.000000e+00 0.000000e+00 0.000000e+00 0.000000e+00 0.000000e+00
<ENDHMM>
~h "bg_board_3"
<BEGINHMM>
<NUMSTATES> 5
<STATE> 2
<MEAN> 16
 1.763252e+02 1.564307e+01 6.531175e+00 3.190976e+00 1.967226e+00 5.902507e-01 2.212639e-02 -3.019568e-01 -1.221860e-01 -1.876555e-02 -4.960638e-03 1.375020e+00 5.720994e-01 2.405929e-02 1.871916e-01 7.825811e-02
<VARIANCE> 16
 6.979588e+03 3.049984e+02 3.183043e+01 4.935437e+00 1.288320e+00 2.014224e-01 1.150143e+02 5.085458e+01 3.575227e+00 1.384418e+00 1.742490e-01 2.889627e+02 1.742336e+02 8.914797e+00 3.992075e+00 5.536810e-01
<GCONST> 7.001855e+01
<STATE> 3
<MEAN> 16
 2.041701e+02 4.050666e+01 1.273892e+01 9.499253e+00 4.470246e+00 1.348921e+00 1.844984e+00 3.542446e-01 1.326883e+00 4.149170e-01 1.842197e-01 -1.860863e+00 -1.001569e+00 7.937351e-01 -2.392550e-01 8.336317e-02
<VARIANCE> 16
 7.481351e+03 1.440185e+03 1.433039e+02 2.451063e+01 8.031423e+00 1.019202e+00 6.596572e+02 2.604635e+02 2.866912e+01 1.708631e+01 1.531349e+00 1.723347e+03 7.093879e+02 6.621861e+01 4.338745e+01 3.129828e+00
<GCONST> 9.766016e+01
<STATE> 4
<MEAN> 16
 1.637517e+02 1.973405e+01 9.104999e+00 5.928626e+00 3.016416e+00 1.591912e+00 -1.502056e+00 2.576475e-01 -5.434127e-01 -5.623340e-02 6.047276e-02 2.482549e-01 1.310069e+00 -9.060588e-01 2.004966e-01 -1.108152e-01
<VARIANCE> 16
 3.701924e+03 4.958162e+02 4.794088e+01 1.069229e+01 2.218416e+00 1.778578e+00 2.150155e+02 7.488361e+01 9.635212e+00 3.987697e+00 2.636600e+00 7.106330e+02 2.475222e+02 2.762221e+01 1.709331e+01 6.629645e+00
<GCONST> 8.587222e+01
<TRANSP> 5
 0.000000e+00 1.000000e+00 0.000000e+00 0.000000e+00 0.000000e+00
 0.000000e+00 7.849620e-01 2.150380e-01 0.000000e+00 0.000000e+00
 0.000000e+00 0.000000e+00 5.920249e-01 4.079751e-01 0.000000e+00
 0.000000e+00 0.000000e+00 0.000000e+00 5.693398e-01 4.306602e-01
 0.000000e+00 0.000000e+00 0.000000e+00 0.000000e+00 0.000000e+00
<ENDHMM>
~h "bg_board_4"
<BEGINHMM>
<NUMSTATES> 5
<STATE> 2
<MEAN> 16
 1.760415e+02 2.002631e+01 1.049225e+01 7.232033e+00 3.928303e+00 1.778856e+00 2.061217e+00 1.024659e+00 4.430045e-01 4.797740e-01 1.750521e-01 2.433368e+00 7.940389e-01 4.018354e-01 2.741246e-01 6.541455e-02
<VARIANCE> 16
 2.931783e+03 4.298811e+02 7.814449e+01 1.657448e+01 3.921782e+00 1.641907e+00 1.833406e+02 1.003519e+02 2.182506e+01 6.461444e+00 1.598787e+00 4.246543e+02 2.832335e+02 5.599358e+01 1.655532e+01 4.349953e+00
<GCONST> 8.771957e+01
<STATE> 3
<MEAN> 16
 2.079868e+02 3.415092e+01 1.521190e+01 8.591321e+00 5.548344e+00 2.774194e+00 -5.858006e-01 -3.679329e-02 -4.630485e-01 -8.767471e-03 4.335774e-02 -4.212418e+00 -1.897638e+00 -8.785000e-01 -5.241894e-01 -1.380752e-01
<VARIANCE> 16
 2.676821e+03 9.065798e+02 1.373357e+02 2.503672e+01 9.410275e+00 3.937222e+00 9.615400e+02 2.791102e+02 3.563271e+01 1.970314e+01 5.287286e+00 2.463568e+03 7.818851e+02 9.807717e+01 5.955529e+01 1.235689e+01
<GCONST> 1.022406e+02
<STATE> 4
<MEAN> 16
 1.939458e+02 2.087532e+01 8.552762e+00 4.920659e+00 2.844296e+00 1.386993e+00 9.949396e-01 -2.681227e-01 -9.819391e-02 -3.516153e-01 -7.059477e-02 3.934571e+00 1.081511e+00 6.174746e-01 7.765636e-02 5.224612e-02
<VARIANCE> 16
 4.346648e+03 4.055416e+02 5.292439e+01 6.550770e+00 2.165663e+00 1.350377e+00 1.131342e+02 6.371754e+01 5.475693e+00 3.363044e+00 1.312385e+00 3.324310e+02 1.988549e+02 1.739629e+01 1.048789e+01 3.540273e+00
<GCONST> 8.034770e+01
<TRANSP> 5
 0.000000e+00 1.000000e+00 0.000000e+00 0.000000e+00 0.000000e+00
 0.000000e+00 6.310906e-01 3.689094e-01 0.000000e+00 0.000000e+00
 0.000000e+00 0.000000e+00 7.070708e-01 2.929292e-01 0.000000e+00
 0.000000e+00 0.000000e+00 0.000000e+00 7.151338e-01 2.848662e-01
 0.000000e+00 0.000000e+00 0.000000e+00 0.000000e+00 0.000000e+00
<ENDHMM>
~h "bg_board_5"
<BEGINHMM>
<NUMSTATES> 5
<STATE> 2
<MEAN> 16
 2.126878e+02 2.294040e+01 1.044860e+01 6.525219e+00 4.029413e+00 2.257689e+00 -5.216698e-01 1.570907e-01 4.946728e-01 1.693126e-01 -3.282972e-03 -8.732972e-01 5.879866e-01 4.246295e-01 2.124731e-01 -5.911623e-02
<VARIANCE> 16
 2.571560e+03 4.204359e+02 7.355591e+01 9.104834e+00 2.993674e+00 2.191206e+00 3.089355e+02 1.110338e+02 1.085790e+01 4.183182e+00 2.562059e+00 7.273402e+02 2.904057e+02 2.476408e+01 1.313017e+01 6.056223e+00
<GCONST> 8.673320e+01
<STATE> 3
<MEAN> 16
 2.477372e+02 2.796015e+01 1.649205e+01 8.097325e+00 6.362377e+00 3.597039e+00 -1.656559e+00 -8.709065e-01 -2.771652e-01 5.030568e-01 2.384664e-01 -2.581134e+00 -1.684358e+00 -8.401260e-01 8.691448e-02 -1.112837e-02
<VARIANCE> 16
 2.606647e+03 9.725183e+02 2.735209e+02 2.215658e+01 1.494148e+01 7.053511e+00 6.013580e+02 4.802345e+02 2.622555e+01 2.587295e+01 1.025215e+01 1.475580e+03 1.464166e+03 7.112676e+01 6.465762e+01 2.403621e+01
<GCONST> 1.051388e+02
<STATE> 4
<MEAN> 16
 2.834380e+02 1.383753e+01 7.255965e+00 4.090367e+00 3.201951e+00 1.781173e+00 -2.362003e-01 1.188406e-01 -1.690008e-01 -2.501735e-01 -2.614428e-02 7.104840e-01 7.783406e-01 3.742614e-01 -2.022210e-01 1.196390e-01
<VARIANCE> 16
 3.095996e+03 3.166548e+02 3.656522e+01 7.155340e+00 3.437791e+00 2.589222e+00 1.710320e+02 6.339357e+01 4.874042e+00 5.967309e+00 2.323200e+00 5.629808e+02 1.763141e+02 1.663518e+01 2.176336e+01 7.634006e+00
<GCONST> 8.388911e+01
<TRANSP> 5
 0.000000e+00 1.000000e+00 0.000000e+00 0.000000e+00 0.000000e+00
 0.000000e+00 6.585299e-01 3.414700e-01 0.000000e+00 0.000000e+00
 0.000000e+00 0.000000e+00 6.852288e-01 3.147712e-01 0.000000e+00
 0.000000e+00 0.000000e+00 0.000000e+00 7.781522e-01 2.218479e-01
 0.000000e+00 0.000000e+00 0.000000e+00 0.000000e+00 0.000000e+00
<ENDHMM>
~h "fp_key"
<BEGINHMM>
<NUMSTATES> 5
<STATE> 2
<MEAN> 16
 2.012239e+02 4.562935e+01 7.590437e+00 7.348192e+00 2.139419e+00 7.309457e-01 6.230412e+00 -4.975571e-02 1.611414e+00 -1.309119e-02 1.543476e-01 3.768962e+00 1.200483e+00 1.137219e+00 1.851655e-01 1.217888e-01
<VARIANCE> 16
 1.504757e+04 2.344628e+03 5.131164e+02 4.784647e+01 2.953851e+00 6.716102e-01 9.223981e+02 4.892595e+02 4.136710e+01 3.617156e+00 6.291056e-01 1.432323e+03 7.924890e+02 5.403512e+01 1.179327e+01 9.560201e-01
<GCONST> 9.549743e+01
<STATE> 3
<MEAN> 16
 4.160445e+02 8.689569e+01 2.595892e+01 1.780071e+01 8.217991e+00 2.708731e+00 -1.056434e+00 -1.438412e+00 -2.425064e-01 -1.184773e-01 -5.771139e-02 -2.425368e+00 -1.478812e+00 -7.193900e-01 -2.081104e-01 -1.298625e-01
<VARIANCE> 16
 5.682790e+04 4.569214e+03 2.158589e+03 1.461120e+02 1.387039e+02 1.172865e+01 2.604527e+03 4.236247e+03 9.095392e+01 1.890708e+02 1.064106e+01 5.753567e+03 1.356221e+04 2.123249e+02 5.370239e+02 2.533485e+01
<GCONST> 1.302195e+02
<STATE> 4
<MEAN> 16
 1.126667e+02 5.194184e+00 2.502125e+00 1.211970e+00 7.510804e-01 3.079343e-01 -1.086604e-02 -1.512635e-02 -8.453871e-02 -1.442295e-02 -3.641988e-03 4.906273e-01 5.011170e-01 6.135396e-02 9.956470e-02 4.739512e-02
<VARIANCE> 16
 4.485723e+03 1.630125e+02 5.257341e+00 4.531817e+00 5.069913e-01 6.548674e-02 1.605116e+01 8.057676e+00 8.396086e-01 4.939197e-01 5.717499e-02 4.939507e+01 8.192809e+01 1.689094e+00 2.842309e+00 2.478515e-01
<GCONST> 5.227424e+01
<TRANSP> 5
 0.000000e+00 1.000000e+00 0.000000e+00 0.000000e+00 0.000000e+00
 0.000000e+00 7.586017e-01 2.413983e-01 0.000000e+00 0.000000e+00
 0.000000e+00 0.000000e+00 8.803372e-01 1.196628e-01 0.000000e+00
 0.000000e+00 0.000000e+00 0.000000e+00 9.157952e-01 8.420481e-02
 0.000000e+00 0.000000e+00 0.000000e+00 0.000000e+00 0.000000e+00
<ENDHMM>
~h "fp_logo"
<BEGINHMM>
<NUMSTATES> 5
<STATE> 2
<MEAN> 16
 1.144881e+02 9.884076e+00 2.499330e+00 2.928280e+00 1.070104e+00 3.486758e-01 1.958772e+00 -4.303895e+00 -4.625851e-02 -1.020533e+00 -2.596180e-01 -1.721809e-01 -7.765398e+00 -5.561021e-01 -1.313345e+00 -1.271157e-01
<VARIANCE> 16
 1.979326e+02 2.266165e+02 4.327977e+00 1.350817e+01 7.288688e-01 8.834735e-02 1.109972e+02 3.131039e+01 5.749591e+00 1.872632e+00 4.714128e-01 2.793697e+02 1.190177e+02 1.228910e+01 4.857288e+00 7.392654e-01
<GCONST> 6.541969e+01
<STATE> 3
<MEAN> 16
 1.091453e+02 5.997353e+00 3.544907e+00 2.249295e+00 1.391768e+00 5.224295e-01 -2.082786e-01 -3.249485e-01 -1.868886e-01 -1.821849e-01 -1.787851e-02 -3.391727e-01 3.713539e+00 4.796752e-02 5.268639e-01 5.364649e-02
<VARIANCE> 16
 1.629707e+02 9.194629e+01 3.654980e+01 9.850021e+00 5.120972e+00 4.583702e-01 2.581725e+01 5.445396e+01 4.847440e+00 4.776258e+00 3.992981e-01 9.216873e+01 1.786014e+02 1.248106e+01 1.188061e+01 1.592975e+00
<GCONST> 7.040619e+01
<STATE> 4
<MEAN> 16
 1.164713e+02 3.826529e+00 2.849026e+00 1.439926e+00 1.170056e+00 3.864147e-01 2.559455e-02 4.393784e-01 6.908686e-02 1.976131e-01 2.916880e-02 2.180804e-01 5.811353e-01 1.614180e-01 3.236389e-01 5.013989e-02
<VARIANCE> 16
 1.560864e+02 2.739669e+01 5.139360e+00 2.437880e+00 8.806221e-01 2.189362e-01 1.174831e+01 8.431614e+00 8.769811e-01 9.048671e-01 3.581600e-01 3.547361e+01 2.655808e+01 2.416440e+00 2.291895e+00 8.514035e-01
<GCONST> 5.038544e+01
<TRANSP> 5
 0.000000e+00 1.000000e+00 0.000000e+00 0.000000e+00 0.000000e+00
 0.000000e+00 2.067133e-01 7.932868e-01 0.000000e+00 0.000000e+00
 0.000000e+00 0.000000e+00 1.139514e-01 8.860486e-01 0.000000e+00
 0.000000e+00 0.000000e+00 0.000000e+00 7.125973e-01 2.874027e-01
 0.000000e+00 0.000000e+00 0.000000e+00 0.000000e+00 0.000000e+00
<ENDHMM>
